30 128
19 -0.033030864 -0.95459884 0.7084707 -0.9214713 -0.6734436 1.5588648 0.8324569 -0.18140697 0.43440002 -1.0616554 -0.078215696 -0.18061681 0.3415768 -1.2377663 -0.15812823 -0.9260796 -0.80299807 -0.5841726 0.3527724 -0.9796851 0.47204453 0.8604189 0.5873697 0.17304224 -0.1871307 0.05661383 0.5875327 0.89933157 0.023400579 -1.0282373 -0.9914539 0.43595028 -0.041474182 -0.2030836 0.55672157 0.13533023 0.34143007 -0.08110232 0.038593978 0.29301485 -1.0609705 -0.4719509 -1.1871616 -0.35801578 0.33108205 0.1735378 0.6454645 0.31727263 -0.66519713 -0.54410875 0.42325953 -0.7323315 -1.7982008 -0.049845748 -0.47760928 -0.5346933 -0.75305915 -0.710169 0.22563766 -0.07906821 0.44932517 -0.57535315 -0.21304049 -0.44025043 -0.42373824 -0.30736673 -0.32046625 -0.9942883 -0.68101466 -0.22745469 0.5721904 -0.58564126 0.53258646 -0.31483287 -0.554578 -0.29221204 0.68777776 0.24195871 0.20916688 -0.35525963 -0.047219284 -0.19705345 -0.5265212 0.5777754 -0.111711875 -0.26209524 0.57540554 -0.34430057 0.3850425 1.0080034 -0.543213 0.46951976 -0.2383623 -0.3050529 -0.60056853 0.13678285 0.8448241 -0.4490081 0.13046376 0.50473094 0.74294645 0.72759414 -0.61004883 0.20013274 -0.44713262 0.13100268 0.46932033 0.70381933 0.41060588 -0.14312714 0.61674035 0.53914505 -1.347068 -0.69069606 -0.0751729 0.4240203 -0.1387397 -0.011776904 0.043802023 0.011692273 -0.5429816 0.16821474 0.25521812 -0.32061437 1.0603005 -0.5038569 -0.25768682 0.7783021
20 -1.0895361 -0.51911074 -0.11161794 -0.55850273 -1.4961058 0.63480914 0.6208511 -0.49453273 0.98748845 -0.994134 0.43045518 -0.55624855 0.40580958 -0.5612953 -0.9311143 -0.51754606 -0.72539556 -1.2001528 0.8050246 -0.30539405 -5.3204883e-05 -0.015734566 -0.20161153 0.24933764 -0.057243805 0.41926438 0.26211858 0.12400957 0.33537784 -0.5614347 -0.9310627 0.15225092 -0.5755409 -0.0669133 0.14905347 0.69501466 -0.3470642 -0.95778847 0.051470354 0.26524502 -0.78583014 -0.7123956 -0.58379596 -0.3183766 0.5262821 0.9443473 0.79541266 1.0176446 -0.51787263 -0.8985887 -0.045956608 -0.31788242 -0.41393667 -0.33399713 -0.6116527 -0.5667578 -0.6544417 -0.36352697 -0.2980425 -0.015538973 0.33879057 -0.31488413 0.14192693 0.30556944 -0.6464648 0.08618407 -0.39670736 -0.9231183 -0.75355786 0.2423929 -0.5026235 -0.6937684 -0.18991485 0.27811924 -0.9374419 0.5183345 0.22874656 0.23389925 0.25691476 0.050427154 -1.1660886 0.71081024 0.021477813 -0.20011534 -0.15362169 0.4269607 -0.26055485 -0.9755492 -0.39495927 1.4834049 -0.46773052 -0.35586977 -0.5270713 -0.6365608 -0.45953852 0.21680732 0.630287 0.19742282 -0.5332964 0.09127201 0.34452268 0.40836433 -0.3031827 0.45723888 -1.2404642 -0.31353208 0.65733534 0.22767213 0.3074016 -0.11509162 0.31722632 0.73263615 -1.2338098 -0.7776211 0.58005995 0.9454465 0.3126608 -0.608294 0.4905218 0.061073422 -0.33971056 -0.36416915 -0.5352401 -0.18502472 0.35721657 -0.32677415 0.25848123 0.43443266
16 0.13997275 0.4030098 0.4246354 0.54937243 -0.34946042 0.4096264 0.180919 -0.42415154 -0.18114898 -0.025040252 -0.06294215 -0.32920513 -0.21076874 -0.41884863 0.28248584 0.40725434 0.14836402 -0.48237535 0.6758137 -0.1407407 -0.087562785 0.2543015 0.2998696 -0.33836266 -0.3976845 0.061295807 -0.10253075 0.23795193 -0.21288903 -0.30993736 0.057545956 0.11952334 -0.7430624 -0.45013076 -0.2888411 0.10593476 -0.25016287 -0.54173195 -0.008329711 0.79598 0.11912727 0.07437871 0.092247434 -0.27566656 -0.15551682 -0.6209705 -0.4730975 0.006519012 0.49590325 -0.8770272 -0.01569116 -0.52657986 -0.5670088 -0.14762123 -0.09824379 -0.57305413 -0.5161091 -0.09663496 -0.70795995 0.5599893 -0.25950986 -0.17510773 0.10812291 -0.11984459 -0.23201542 -0.47708958 0.5537572 -0.14146468 0.5231909 -0.50591266 0.09642049 0.03167503 -0.6690391 0.22697107 -0.23264751 0.32882652 0.1697813 -0.27326173 0.43808946 0.40989193 -0.018858993 0.1623985 0.3696399 0.086234696 0.18830934 0.44308016 0.07810115 0.19356668 -0.69181955 0.45382226 -0.58846235 0.23605907 -0.5576665 -0.20560287 -0.06336126 -0.5000871 0.5806818 -0.60171944 -0.3294633 0.06690097 0.20286627 0.17467101 0.0022061742 -0.039386876 -0.14551358 -0.106908284 0.48263127 0.013312642 -0.23176278 0.12170595 0.35049143 -0.58109576 -1.0130178 0.21058932 0.16399416 0.48245212 0.2992796 0.3134019 0.25564495 -0.17839071 0.11227786 0.029552056 0.7267933 -0.3739577 -0.04616048 -0.31808177 -0.12440041 0.10027121
14 0.11890805 0.38570473 0.42001948 0.54473263 -0.36886844 0.42179483 0.17721358 -0.43699002 -0.17131695 -0.04111466 -0.068545245 -0.33822227 -0.19491263 -0.42555276 0.27464095 0.38926342 0.13851783 -0.49909177 0.6851492 -0.13720213 -0.081099845 0.24443877 0.28535622 -0.3288717 -0.37964398 0.06465293 -0.10338071 0.23320141 -0.19371961 -0.30189794 0.05572121 0.10183909 -0.74397504 -0.419697 -0.28234324 0.10421205 -0.23849532 -0.54343474 -0.02192761 0.7759472 0.098503664 0.04717618 0.09023756 -0.28331596 -0.15233733 -0.6050854 -0.4576912 0.0120941475 0.49666467 -0.8724781 -0.0054180706 -0.53777486 -0.5629667 -0.13597448 -0.11702377 -0.5884032 -0.52036077 -0.09130706 -0.69632405 0.5338523 -0.25951692 -0.16726534 0.10558974 -0.11338962 -0.23732357 -0.4743001 0.5411045 -0.1400094 0.50734425 -0.5146707 0.09335431 0.017583426 -0.6707267 0.21095994 -0.26004136 0.3583082 0.16270657 -0.26128918 0.42487347 0.40929744 -0.04789789 0.17243631 0.37164712 0.08527239 0.16533369 0.44391793 0.06904027 0.19464584 -0.6829302 0.46879292 -0.5840172 0.21829857 -0.562348 -0.22444691 -0.053992048 -0.50542027 0.57674456 -0.5966178 -0.32135183 0.062272325 0.2161483 0.1460782 0.012172515 -0.02326892 -0.15560311 -0.11751883 0.47753114 -0.0011981467 -0.22548339 0.115612544 0.33603677 -0.5724683 -1.0151676 0.1904826 0.16256732 0.4903264 0.30204472 0.29444078 0.26230875 -0.19536671 0.10166484 0.017862666 0.70624673 -0.36424285 -0.038929597 -0.32008 -0.1090568 0.11482027
15 0.12374349 0.37538564 0.416695 0.53025824 -0.34951153 0.412911 0.17587718 -0.42662063 -0.16780761 -0.03524973 -0.069482915 -0.32817602 -0.19994405 -0.4152693 0.27078274 0.3826518 0.14033182 -0.48170334 0.6662307 -0.14020218 -0.072394736 0.23789543 0.28067896 -0.32120955 -0.37893903 0.059770323 -0.102127 0.23545817 -0.19578862 -0.29594544 0.05246829 0.10581406 -0.7274653 -0.41692364 -0.2764153 0.098018676 -0.23684278 -0.5255907 -0.020548984 0.7634528 0.09764105 0.051860884 0.08444862 -0.28198025 -0.14566539 -0.60239 -0.45057845 0.0041588326 0.4874676 -0.8575679 -0.010318258 -0.52274334 -0.55898875 -0.12491097 -0.11014826 -0.5700721 -0.5134837 -0.094169006 -0.6845056 0.5263973 -0.25139475 -0.162977 0.10564263 -0.112844005 -0.22563158 -0.47007006 0.5374187 -0.13773936 0.4975396 -0.50636566 0.09530444 0.018961892 -0.65065527 0.21416096 -0.24372844 0.3409188 0.15484253 -0.2531694 0.41674086 0.39733845 -0.033989035 0.16853416 0.35619628 0.07959339 0.16571334 0.4286411 0.07483044 0.19291186 -0.66545 0.4531923 -0.57530123 0.22663353 -0.5534558 -0.21770737 -0.053346843 -0.4958258 0.5616932 -0.57836825 -0.31085214 0.061888456 0.21772449 0.14571124 0.011876387 -0.023009306 -0.14478414 -0.108976476 0.46186343 -0.006454595 -0.22241478 0.10979653 0.3278199 -0.5681153 -0.9855448 0.20130274 0.15856466 0.47680694 0.3037221 0.2887935 0.26179844 -0.1897314 0.102474146 0.014328255 0.6985195 -0.3589308 -0.03650381 -0.31474805 -0.11467225 0.11041749
17 0.11344745 0.3820726 0.4253424 0.53294116 -0.367679 0.4274975 0.18631326 -0.44191772 -0.1682944 -0.036234435 -0.05621382 -0.32337612 -0.1955526 -0.42028219 0.27436882 0.3810021 0.12822297 -0.5007724 0.676727 -0.14515062 -0.069252685 0.23395789 0.28309202 -0.31367594 -0.3742337 0.053506687 -0.095677935 0.2388847 -0.19634488 -0.3071903 0.048924454 0.107239224 -0.74065185 -0.429605 -0.2889538 0.09694832 -0.24142839 -0.5519107 -0.01955614 0.7855729 0.08980721 0.05251121 0.08489104 -0.29393917 -0.15366581 -0.6122631 -0.4631864 0.005472131 0.48979452 -0.881212 -0.0066796415 -0.5540519 -0.5846313 -0.12730664 -0.11691647 -0.5939333 -0.5264923 -0.1033355 -0.6996164 0.55170405 -0.2645741 -0.16998161 0.108409435 -0.108856104 -0.23311776 -0.48505196 0.55540013 -0.14983435 0.50415295 -0.52211213 0.104964934 0.015838616 -0.67191523 0.2109665 -0.26340666 0.3610549 0.16339833 -0.26134488 0.42593527 0.41706035 -0.03823969 0.16271792 0.3640382 0.09644898 0.16323897 0.44470873 0.07334032 0.19875725 -0.6792879 0.4736506 -0.59146297 0.23503178 -0.56506497 -0.22161543 -0.06710118 -0.5082358 0.57638514 -0.5938675 -0.33231163 0.066843666 0.2206376 0.16106488 0.011557904 -0.027698025 -0.16012353 -0.111180626 0.4880448 0.013145402 -0.21793349 0.10813413 0.34774128 -0.5783984 -1.029427 0.19972372 0.15840834 0.4875109 0.30379125 0.3019235 0.26470813 -0.19465828 0.10065124 0.022548176 0.71968734 -0.36848104 -0.026914744 -0.32260415 -0.11708895 0.11007221
4 0.13968545 -0.08772408 0.07367029 -0.10657631 -0.20991473 0.27060306 0.2700511 0.53441983 0.13188247 -0.40975305 0.15286538 -0.026902953 -0.07325054 -0.416021 -0.04336637 -8.466109e-05 -0.11870252 0.09215249 0.087060556 -0.14518252 -0.37721515 0.47134483 0.3356919 -0.3150607 -0.17068972 0.064376466 0.22119129 0.06802232 -0.07403065 -0.37677264 -0.23862337 0.43093663 -0.32105044 -0.59474444 0.17657697 0.43816486 -0.03495118 -0.14246008 0.47943962 0.43550995 -0.07750719 0.1262917 -0.2833751 0.39367998 0.039100002 0.27020174 0.09360705 0.46292475 -0.3884157 -0.008132124 0.12528504 0.30050582 -0.12289415 -0.4835177 0.09188077 0.1694224 0.0010536148 -0.094869465 -0.2276049 0.28526893 0.33259678 -0.21657898 0.062440876 -0.43069395 -0.2109315 0.21587227 -0.2249447 -0.38604683 -0.15720971 0.4008621 -0.05469171 0.01601084 0.030949192 0.058704097 0.120126076 -0.47450668 0.33940765 -0.2551448 0.26140463 -0.10545994 0.22299397 -0.08496988 -0.057779968 0.0435469 0.24813789 -0.05256398 0.13157225 -0.17758003 -0.20207512 0.09409185 -0.15117803 -0.13621408 -0.10407454 0.13564427 -0.15055874 0.31511685 0.095918015 -0.035377014 -0.043203685 -0.008340196 -0.34162477 0.42856959 -0.31604046 -0.20653482 -0.11094727 0.08127503 0.25221655 0.40852165 0.112064056 0.11016232 0.16655232 0.218792 -0.20379795 -0.14252004 0.14806986 0.123987354 -0.3180941 0.08731272 -0.21842016 0.3687246 0.06656445 0.3375272 0.10462269 -0.02031992 0.08060239 0.19375478 -0.29521105 0.006822083
7 0.15170097 -0.07885897 0.06597434 -0.0966228 -0.186199 0.25573 0.25676444 0.5321806 0.12480464 -0.3910172 0.14805755 -0.017322619 -0.07523398 -0.4063269 -0.035665404 0.0071547246 -0.10834997 0.099814 0.08567957 -0.13662662 -0.37878358 0.46324024 0.33525375 -0.3227619 -0.17420605 0.05989012 0.20911822 0.06901519 -0.07690294 -0.36156443 -0.22114737 0.42560703 -0.3225785 -0.5905665 0.16354385 0.4256927 -0.031155568 -0.13633482 0.4773778 0.4399951 -0.062891304 0.12700148 -0.27369145 0.3892676 0.027341742 0.24322438 0.08571708 0.44334465 -0.3753164 -0.011798986 0.11661079 0.29539 -0.12189334 -0.47778165 0.098505765 0.161553 0.009436926 -0.08893462 -0.23006333 0.2833908 0.31914338 -0.21094911 0.061055902 -0.4180662 -0.20648131 0.20507362 -0.20664345 -0.36567783 -0.13783038 0.38413328 -0.043644097 0.024542702 0.023148863 0.06368279 0.12746817 -0.47092143 0.33557457 -0.25853783 0.25484958 -0.103215754 0.23277102 -0.08757499 -0.046228305 0.046890777 0.24478066 -0.044751327 0.12954442 -0.1590145 -0.20208547 0.07830584 -0.150511 -0.1241785 -0.104556665 0.13229616 -0.13905191 0.2971878 0.10037751 -0.04183257 -0.040907558 -0.0069051823 -0.33891213 0.4105449 -0.29921564 -0.20978664 -0.10202016 0.083409004 0.24464655 0.39272696 0.10931915 0.10983782 0.16206326 0.1997964 -0.19808318 -0.11973417 0.14145406 0.10992269 -0.31279904 0.09554051 -0.21074878 0.362086 0.074133456 0.33330697 0.1106128 -0.015258644 0.065764435 0.19045644 -0.28702646 0.0019120742
18 0.1273301 0.37647644 0.4131971 0.5974545 -0.4582288 0.5099393 0.19881748 -0.3992452 -0.19469565 -0.14241987 -0.08899751 -0.37347373 -0.19300476 -0.51287454 0.3256136 0.37806067 0.14998692 -0.53400207 0.8067971 -0.16171506 -0.1439545 0.29156166 0.32869855 -0.4324294 -0.38839158 0.059188183 -0.12910628 0.2460294 -0.12528585 -0.35656258 0.10564861 0.11354972 -0.8511398 -0.41281888 -0.24427612 0.16435243 -0.22061208 -0.5396132 -0.022674706 0.82133216 0.044281576 -0.010276201 0.06476579 -0.21123244 -0.15300542 -0.5851098 -0.45050225 0.06738664 0.50213206 -0.8483505 0.030497564 -0.53100896 -0.50426453 -0.14764501 -0.11594296 -0.6311326 -0.560596 -0.077542335 -0.69150895 0.50641227 -0.2366171 -0.14141366 0.11902286 -0.13759072 -0.31605506 -0.46831998 0.5475848 -0.14144044 0.5035015 -0.5284884 0.104464285 0.05166405 -0.7504424 0.1804228 -0.33799106 0.42176884 0.17499246 -0.26442692 0.46014678 0.43585804 -0.142426 0.16873805 0.44311705 0.1025827 0.14788312 0.4753671 0.048232317 0.21717134 -0.69523776 0.463852 -0.6292157 0.10403037 -0.6382975 -0.2437644 -0.022525365 -0.5176233 0.59526795 -0.65070844 -0.2685185 -0.0045293677 0.22967237 0.042678185 0.032548428 -0.045793533 -0.16905227 -0.12417346 0.47359565 -0.0352019 -0.22667497 0.11984302 0.2501438 -0.5716058 -1.0037897 0.16684066 0.14440659 0.5403501 0.29564288 0.25794193 0.2341936 -0.21384011 0.08281425 0.048710823 0.68017244 -0.29630765 -0.053570077 -0.27570254 -0.10534927 0.14552315
28 0.15401636 -0.0891335 0.07941782 -0.117231466 -0.20779456 0.28766686 0.2807989 0.56601244 0.1392155 -0.42636657 0.15613519 -0.016035883 -0.078245245 -0.4389278 -0.04090631 -0.0041187536 -0.12553513 0.10403642 0.08954117 -0.15151493 -0.393369 0.5008251 0.35450554 -0.33377096 -0.18017337 0.06248415 0.23045385 0.069696255 -0.077230476 -0.39107373 -0.25298017 0.45518908 -0.33230704 -0.62385535 0.18792734 0.45943406 -0.02743066 -0.14117864 0.5137776 0.46549365 -0.077625304 0.13123658 -0.3026511 0.4166265 0.038312815 0.27251086 0.100503914 0.48434937 -0.40971592 -0.005603938 0.12921001 0.32103822 -0.13278152 -0.51428527 0.096045665 0.17847964 0.007197958 -0.09443257 -0.23812672 0.29995373 0.35189566 -0.23173971 0.06606178 -0.45056534 -0.2190008 0.21882175 -0.23320112 -0.40158322 -0.16019687 0.41879877 -0.052112453 0.027645655 0.04282163 0.06363703 0.13212718 -0.51015174 0.36350313 -0.2686358 0.27053556 -0.11391795 0.25095356 -0.097335935 -0.056744214 0.051796958 0.2601441 -0.059399955 0.1479605 -0.17663954 -0.2082137 0.08684027 -0.15239637 -0.13401166 -0.104243614 0.14589654 -0.15887387 0.33047432 0.09966731 -0.038794316 -0.041497152 -0.008656412 -0.36258292 0.4530932 -0.33060595 -0.22752099 -0.114001065 0.089247026 0.26756415 0.43421614 0.11828495 0.118494004 0.1725918 0.233096 -0.21280894 -0.14492485 0.15163204 0.12259715 -0.33847737 0.09769803 -0.23051232 0.39067802 0.076562956 0.3598207 0.11476355 -0.021147098 0.08379282 0.20420928 -0.31601024 0.0053741806
22 0.16114138 -0.080044664 0.07308059 -0.10375754 -0.19650708 0.26594344 0.26725972 0.5674059 0.13074178 -0.41241553 0.15059902 -0.01221625 -0.07950949 -0.41635692 -0.03875491 0.0064228442 -0.11449555 0.114291206 0.08013442 -0.13663678 -0.3927016 0.490943 0.34913492 -0.3330981 -0.1796301 0.059487086 0.22524552 0.065147035 -0.079668514 -0.38313764 -0.24071188 0.4517019 -0.3246124 -0.6199021 0.18278156 0.44601047 -0.027729021 -0.13345423 0.5056967 0.45437247 -0.0662127 0.14333028 -0.28637412 0.4207455 0.0334614 0.26871097 0.08971165 0.4742798 -0.40776384 0.009589285 0.12634604 0.3253975 -0.11519183 -0.50719124 0.10211701 0.1846696 0.018780762 -0.092922896 -0.23599689 0.2936565 0.34653035 -0.222193 0.06641074 -0.4498108 -0.20930907 0.22656809 -0.23457329 -0.3865357 -0.15488866 0.41740677 -0.0518407 0.03136335 0.042534895 0.064335324 0.14148115 -0.50827736 0.35469395 -0.2667687 0.26444343 -0.1150438 0.25161633 -0.095567875 -0.059773352 0.04693069 0.25880462 -0.05995387 0.1406148 -0.17270613 -0.20697561 0.0696083 -0.14224675 -0.13989687 -0.09975853 0.1492049 -0.15114082 0.32604426 0.089205824 -0.036258824 -0.039176714 -0.00783987 -0.36840555 0.44079334 -0.32554936 -0.22657217 -0.10021727 0.09231926 0.25534517 0.4261591 0.11934019 0.11568396 0.16432157 0.2220711 -0.18478063 -0.13841099 0.14276561 0.11277917 -0.34300044 0.09891977 -0.236087 0.38569242 0.07517186 0.35454246 0.10697487 -0.01399084 0.07246401 0.21124037 -0.30965883 0.00447551
6 0.15563126 -0.06290404 0.078764334 -0.078244664 -0.19610733 0.2592005 0.2611009 0.5294893 0.11277596 -0.38837782 0.14158143 -0.02673909 -0.084301636 -0.40770793 -0.027581247 0.027740058 -0.10226716 0.099418454 0.09822456 -0.12713715 -0.3864409 0.468144 0.33600596 -0.3313911 -0.17929243 0.062519826 0.20065467 0.063947506 -0.0766739 -0.36996222 -0.21484292 0.42767587 -0.33910114 -0.6039545 0.1627766 0.4245955 -0.040677037 -0.13981293 0.4826357 0.45525077 -0.052788798 0.1334056 -0.26315543 0.38978213 0.023437344 0.2372671 0.0698585 0.44687238 -0.35958427 -0.022996599 0.11624198 0.29390365 -0.11637548 -0.48028132 0.09580725 0.16279446 0.004340605 -0.08275814 -0.24734963 0.2933748 0.30879042 -0.21387433 0.06675243 -0.4208797 -0.20962052 0.20128006 -0.19819003 -0.357558 -0.12370333 0.38547266 -0.053576924 0.03275216 0.0054968954 0.06674952 0.12580757 -0.46567744 0.33496103 -0.26268697 0.26520374 -0.09002245 0.23491503 -0.08330225 -0.038175292 0.04091147 0.25406036 -0.039496038 0.12412868 -0.15474293 -0.21951367 0.076867476 -0.15347691 -0.12504084 -0.10826442 0.13313311 -0.14225766 0.29114193 0.09907658 -0.050930716 -0.047320716 -0.01186144 -0.34291774 0.41033164 -0.29782858 -0.20972812 -0.09812151 0.08096577 0.2491978 0.39171955 0.09700412 0.119375475 0.1615807 0.185717 -0.19213046 -0.11653338 0.14320968 0.11309446 -0.30831143 0.099018745 -0.21190433 0.35268408 0.078290954 0.33020115 0.11572359 -0.02050605 0.051186483 0.19249438 -0.29205012 0.0011793004
3 0.16112953 -0.07186014 0.07942055 -0.08926333 -0.21068914 0.2813125 0.28126565 0.5647141 0.12746906 -0.4186488 0.15505992 -0.029613081 -0.08387845 -0.43743157 -0.03456806 0.014936499 -0.116343185 0.10076423 0.10147734 -0.14419048 -0.40822688 0.49737024 0.3539464 -0.35013223 -0.18987888 0.06685579 0.21969295 0.066343874 -0.081349544 -0.39149243 -0.23772496 0.45626622 -0.3537781 -0.6371251 0.1743387 0.4535315 -0.04069026 -0.15348586 0.5066628 0.47990546 -0.05868144 0.14222936 -0.28240559 0.41554597 0.032986756 0.26171154 0.0819822 0.48063472 -0.39387733 -0.020252364 0.12070547 0.32063326 -0.12259436 -0.5125209 0.09830785 0.17190917 0.0016625035 -0.088472895 -0.25350034 0.30779302 0.3392352 -0.22483814 0.07193594 -0.45019963 -0.22490887 0.21535608 -0.22294268 -0.3936634 -0.14219125 0.4100639 -0.053856183 0.03398026 0.017738923 0.069503285 0.1331667 -0.4996465 0.36025053 -0.27300647 0.27624777 -0.102745436 0.24415262 -0.093043126 -0.04674288 0.043423835 0.26305413 -0.0432458 0.13731663 -0.1711262 -0.22359714 0.08912273 -0.16328405 -0.1380311 -0.11886797 0.14550848 -0.14648964 0.31741646 0.10091976 -0.04762272 -0.048846498 -0.009724287 -0.36645016 0.4434501 -0.32320693 -0.22532006 -0.102934405 0.08331573 0.26743063 0.42321122 0.108789116 0.1241961 0.1731574 0.20577458 -0.21383986 -0.13192867 0.15388675 0.1244536 -0.32658058 0.102236494 -0.22939834 0.38273734 0.08069285 0.35322776 0.12374902 -0.017905151 0.069840536 0.20112982 -0.31300947 0.0042243334
26 0.15999599 -0.07376121 0.074288554 -0.091186725 -0.19464265 0.26733294 0.26645672 0.53256184 0.11815312 -0.3927974 0.14553924 -0.021196347 -0.08356037 -0.41182476 -0.034825686 0.011822426 -0.10826982 0.10144483 0.08655924 -0.13859369 -0.37705576 0.4735707 0.3398323 -0.3220519 -0.17113432 0.058222804 0.21487166 0.06435713 -0.07680069 -0.3721037 -0.22424407 0.43361315 -0.32735273 -0.600109 0.16784601 0.43071836 -0.029596137 -0.13290578 0.48609087 0.4485241 -0.06425804 0.13321827 -0.2748856 0.3960552 0.031077331 0.24341497 0.07557164 0.44713765 -0.37308893 -0.014034851 0.12206563 0.30083257 -0.118719034 -0.48725092 0.10030928 0.16430043 0.008510248 -0.0877857 -0.23928475 0.29021683 0.3223045 -0.21506615 0.0623891 -0.4311406 -0.20976529 0.20682864 -0.21063451 -0.37101206 -0.13730225 0.387678 -0.04312887 0.026049152 0.02568892 0.06312166 0.12765385 -0.47427556 0.34181806 -0.25835583 0.25868803 -0.09959994 0.24129143 -0.09103661 -0.05088065 0.042412747 0.24829029 -0.051636506 0.13349214 -0.16206609 -0.20896083 0.07889012 -0.1510197 -0.12654006 -0.109395444 0.13298544 -0.1470402 0.303714 0.095733255 -0.045062803 -0.037458066 -0.005827943 -0.34991366 0.41982508 -0.3113425 -0.21143243 -0.094192825 0.08095878 0.24653383 0.40094358 0.10838726 0.11754544 0.15962902 0.19918701 -0.19399059 -0.12564737 0.1414117 0.11663945 -0.31907704 0.10099107 -0.21719448 0.36571354 0.07795547 0.34051776 0.11296775 -0.01610599 0.06295445 0.19287792 -0.29865333 0.0027956606
5 0.18963683 -0.07591646 0.07729183 -0.09611097 -0.18206996 0.27381605 0.27230608 0.59633607 0.11133545 -0.41388148 0.14851515 -0.009074002 -0.09481118 -0.43767884 -0.018620903 0.021665227 -0.106525436 0.1307461 0.073587894 -0.1414384 -0.41427067 0.50830567 0.37020624 -0.3547852 -0.18315607 0.050883494 0.22790807 0.07142181 -0.08422471 -0.38853744 -0.23148093 0.4616115 -0.33945665 -0.64423954 0.18149652 0.45573106 -0.022633672 -0.12541665 0.52010256 0.47417104 -0.056754954 0.1542415 -0.29104763 0.43011442 0.02077437 0.25575325 0.0775357 0.46420443 -0.39708552 0.008839209 0.13061637 0.33715197 -0.11618239 -0.51615125 0.118482456 0.18963759 0.02549307 -0.083194904 -0.24533412 0.30907837 0.341335 -0.2220858 0.060250275 -0.47136843 -0.21502031 0.22286001 -0.22869317 -0.38495827 -0.13294744 0.4199286 -0.041175656 0.03920861 0.033076115 0.060469437 0.16323583 -0.52867216 0.3638532 -0.28530845 0.27508986 -0.115645215 0.28213975 -0.10781052 -0.057531834 0.051411316 0.27184987 -0.06593163 0.15290791 -0.15382527 -0.21502379 0.04782119 -0.1515844 -0.13340473 -0.103467435 0.16047984 -0.14284427 0.32697123 0.09173434 -0.05115744 -0.029554723 -0.011571055 -0.3830933 0.44431418 -0.3250853 -0.24365927 -0.08151216 0.10187878 0.25416306 0.43085977 0.11274835 0.120882966 0.16320017 0.21164343 -0.18645038 -0.119578786 0.14281629 0.09931606 -0.3481797 0.11530357 -0.24418718 0.3988957 0.0869734 0.37428007 0.13070591 -0.010908321 0.07128717 0.22256386 -0.3224679 -0.0039074123
25 0.16793601 -0.063765824 0.0739544 -0.076774746 -0.18635708 0.26056752 0.2627986 0.54486877 0.116988294 -0.38722795 0.14779267 -0.017921885 -0.08394211 -0.40961942 -0.02227923 0.023631066 -0.09754491 0.110945195 0.08753084 -0.13090973 -0.39432865 0.4792266 0.34755245 -0.33865252 -0.1788882 0.054719336 0.2074643 0.06345047 -0.077540696 -0.37153906 -0.21663183 0.43357402 -0.33343333 -0.61589116 0.1661152 0.43334097 -0.03242549 -0.13688508 0.49103934 0.45940727 -0.04778497 0.1422288 -0.26817536 0.4067715 0.025329454 0.24412069 0.07045929 0.45231274 -0.37558955 -0.007014808 0.11813207 0.31690624 -0.11004669 -0.4929539 0.10502088 0.17498551 0.019106936 -0.08421184 -0.24445689 0.30188227 0.32485616 -0.21403551 0.06630463 -0.43774137 -0.2090747 0.20818275 -0.20470686 -0.36352858 -0.1282699 0.39849564 -0.050543483 0.037784386 0.01985616 0.06418872 0.14083381 -0.48848078 0.33844203 -0.27304184 0.26258737 -0.0967552 0.25086114 -0.09458918 -0.045235407 0.044215493 0.25699922 -0.04952596 0.13258141 -0.15233293 -0.21713354 0.057760417 -0.14580002 -0.13548808 -0.10523607 0.14647274 -0.14138086 0.3109318 0.09108184 -0.04669961 -0.035136133 -0.013846973 -0.35947263 0.42307296 -0.31084192 -0.22676513 -0.094790414 0.09158713 0.24522899 0.40527144 0.105501816 0.1180332 0.15683536 0.2024568 -0.18292859 -0.11276837 0.13957667 0.10980157 -0.32858935 0.09932689 -0.22571549 0.3716811 0.08552884 0.34726536 0.118587814 -0.015676666 0.05320876 0.20542099 -0.30189505 -0.0048128646
21 0.12776819 -0.08633331 0.057759468 -0.103954405 -0.20628725 0.25282842 0.26478145 0.5246904 0.14061193 -0.39738598 0.15620498 -0.019716233 -0.065850705 -0.39336237 -0.05130562 -0.0026585136 -0.117375135 0.09760103 0.07956975 -0.12907168 -0.37427896 0.4570515 0.31435418 -0.30835855 -0.1658051 0.065171584 0.21083401 0.053480715 -0.060957205 -0.36539674 -0.23287174 0.4220505 -0.31210494 -0.57750297 0.17301224 0.43191314 -0.031170249 -0.13132589 0.4771174 0.41967314 -0.06664101 0.12349787 -0.2756236 0.39247084 0.042776447 0.2737752 0.09852085 0.45829436 -0.38570258 -0.0037592466 0.11932104 0.30893564 -0.099720724 -0.478595 0.08752392 0.17539679 0.0129536865 -0.089890696 -0.22267444 0.27003098 0.32407242 -0.21102867 0.060500514 -0.40815592 -0.20602132 0.21396294 -0.22237612 -0.3709512 -0.15381448 0.40185386 -0.057425056 0.021925272 0.03078135 0.0590559 0.11633959 -0.46328056 0.33128467 -0.24697943 0.2512453 -0.109437756 0.21376714 -0.080670394 -0.05030199 0.033968017 0.24239013 -0.053680595 0.12389444 -0.1805654 -0.19731756 0.08723039 -0.13348287 -0.13887548 -0.097419836 0.13238145 -0.14236446 0.3119094 0.08792865 -0.022180708 -0.0382643 -0.013996458 -0.34112057 0.40937227 -0.29980618 -0.20145014 -0.113918744 0.08150395 0.24118754 0.39496097 0.11218385 0.10805204 0.1490171 0.22484219 -0.17203328 -0.13535939 0.14037561 0.10700541 -0.31398728 0.07612995 -0.21374409 0.3584388 0.068395875 0.3229955 0.08072677 -0.013818843 0.06316264 0.19624706 -0.28449315 0.0067730634
23 0.1426855 -0.08279374 0.079073675 -0.096622 -0.20852433 0.27775267 0.27619332 0.5299083 0.13052851 -0.41497463 0.15239628 -0.024318445 -0.072341345 -0.42488816 -0.040369734 0.0058303773 -0.11868345 0.08752084 0.09376235 -0.13931967 -0.3801367 0.48088762 0.33904105 -0.32718593 -0.17648597 0.065095514 0.21637161 0.06855044 -0.07136024 -0.38329202 -0.24262416 0.43899873 -0.33007023 -0.60138035 0.16979636 0.43760252 -0.03897343 -0.14870104 0.48493546 0.44852298 -0.07026809 0.12927839 -0.28595328 0.39231545 0.034482673 0.26220915 0.08714143 0.46223527 -0.384099 -0.017074859 0.12152773 0.29839608 -0.1316999 -0.48589337 0.0885745 0.15820865 -0.004254305 -0.09414154 -0.24099545 0.29279566 0.32395548 -0.21767788 0.06231427 -0.42781872 -0.21877578 0.2021617 -0.21390016 -0.38300952 -0.14284138 0.39567962 -0.051042244 0.024394002 0.024631249 0.06160724 0.119847566 -0.47023517 0.345853 -0.25650716 0.2608405 -0.1001051 0.22614709 -0.08622288 -0.049466595 0.047934268 0.24517219 -0.047239672 0.13062891 -0.17161155 -0.2126386 0.091796346 -0.15450078 -0.13166742 -0.114690736 0.13138665 -0.15082617 0.3059909 0.10461227 -0.044987902 -0.047771893 -0.0051965863 -0.338473 0.42719087 -0.31435072 -0.2080089 -0.1151172 0.079607494 0.25354832 0.40751815 0.11286215 0.11291215 0.16785046 0.21277274 -0.21210937 -0.1301683 0.14303905 0.12462319 -0.31566778 0.08636587 -0.2133846 0.36478588 0.07327149 0.3287131 0.10910863 -0.023447957 0.068899885 0.18987246 -0.29007298 0.008161797
29 0.15581599 -0.08100219 0.07398903 -0.09604752 -0.20936742 0.27527237 0.27314636 0.5559341 0.13618888 -0.41978663 0.15398267 -0.024677664 -0.08198158 -0.431328 -0.036247164 0.011944047 -0.116412 0.10021154 0.09056808 -0.14136119 -0.3994928 0.49132156 0.34406188 -0.33382952 -0.18353023 0.06309337 0.2229707 0.07159622 -0.077893354 -0.38371277 -0.24133429 0.4447813 -0.33929384 -0.62004435 0.17502607 0.45238104 -0.037268437 -0.1481477 0.49806166 0.4605172 -0.06554985 0.1368996 -0.2860659 0.40482345 0.036748614 0.26815027 0.090135895 0.47450665 -0.39455923 -0.013855847 0.12600023 0.3137971 -0.120041855 -0.49862844 0.10102981 0.17044526 0.0028398163 -0.093026675 -0.2476571 0.30107325 0.3349546 -0.22354926 0.06318216 -0.4437724 -0.2193333 0.21276602 -0.22074775 -0.38444397 -0.1433368 0.40800896 -0.05176442 0.02731973 0.029307427 0.06435621 0.13433802 -0.4931342 0.3463821 -0.26517695 0.26908883 -0.103931144 0.2413822 -0.08964073 -0.046837922 0.04029692 0.2594162 -0.047901 0.13924588 -0.16968252 -0.21385036 0.08417205 -0.15527855 -0.13683425 -0.10885912 0.1380714 -0.15264827 0.3196119 0.10384021 -0.046423584 -0.043015085 -0.0055289334 -0.35301176 0.43677932 -0.31715688 -0.22068171 -0.10895677 0.08890572 0.25596666 0.4194653 0.11506153 0.12175842 0.16660407 0.21303524 -0.20409122 -0.13597114 0.14753756 0.12260072 -0.32701385 0.0937497 -0.22532429 0.38151318 0.07486095 0.34770247 0.11298308 -0.019783119 0.06721333 0.20134413 -0.30606446 0.0012280501
27 0.123777196 -0.10660248 0.060054105 -0.13616146 -0.21233714 0.27584866 0.27227983 0.5281984 0.15327065 -0.42179838 0.15776378 -0.019702518 -0.056023158 -0.41095892 -0.06499076 -0.027380332 -0.13371587 0.092428274 0.07709178 -0.14726582 -0.36558682 0.46485624 0.32710537 -0.300833 -0.16396911 0.06323136 0.22197405 0.06850278 -0.063532725 -0.37300193 -0.25627622 0.42712948 -0.30247903 -0.5786413 0.18574396 0.42825434 -0.029516688 -0.1345748 0.47980306 0.41841188 -0.09130579 0.11035455 -0.29582337 0.38536274 0.051474586 0.2876 0.121706456 0.47009835 -0.4088652 0.0020348076 0.1206309 0.30800915 -0.12047073 -0.47864285 0.08319199 0.17604136 0.010341364 -0.09393224 -0.20602015 0.26259238 0.34094366 -0.21991321 0.061368 -0.41339093 -0.20766605 0.22564137 -0.24505322 -0.39029324 -0.17998715 0.41041633 -0.055824254 0.0070643625 0.055954468 0.058809344 0.11540534 -0.47552806 0.33799833 -0.2381207 0.24866755 -0.12121606 0.2130176 -0.081328616 -0.072655015 0.046417173 0.22957316 -0.057228986 0.12455427 -0.1860172 -0.17702079 0.09916272 -0.13659234 -0.13712673 -0.09395698 0.12978263 -0.15387365 0.32433665 0.09069167 -0.016419565 -0.041586798 -0.007710747 -0.33386835 0.42059466 -0.31036475 -0.19604789 -0.118571125 0.08350233 0.24449703 0.40460825 0.12558654 0.10200581 0.16148338 0.24199107 -0.19297956 -0.1555963 0.14253789 0.11765279 -0.32116845 0.06702442 -0.21699645 0.36964425 0.058592938 0.32202187 0.077188365 -0.007121951 0.08842216 0.19512244 -0.28177842 0.017371194
8 0.13621402 -0.06974919 0.07212856 -0.08983457 -0.19367106 0.25101236 0.25113547 0.4956823 0.11995646 -0.38279763 0.14100692 -0.025054418 -0.07063775 -0.391297 -0.04005325 0.0058693 -0.10501209 0.08202294 0.08752847 -0.13195904 -0.36180422 0.4440511 0.3171094 -0.3092539 -0.16352539 0.06233148 0.20383789 0.05960902 -0.07121563 -0.357333 -0.2162298 0.4115097 -0.3098894 -0.5667605 0.16011563 0.41374546 -0.03900262 -0.13350657 0.4574833 0.42201695 -0.06133863 0.118999496 -0.26193523 0.36911845 0.03311232 0.24330674 0.074832916 0.43663442 -0.353872 -0.016692989 0.11287602 0.28630698 -0.1141269 -0.4627773 0.08572221 0.15582004 0.0025417167 -0.08523896 -0.23222639 0.27105278 0.30657935 -0.20731653 0.0624692 -0.40224418 -0.20611648 0.19770466 -0.20338543 -0.35362986 -0.13675857 0.3682446 -0.05388953 0.021926638 0.014601521 0.060800076 0.11220725 -0.43566063 0.31886673 -0.24531545 0.24755582 -0.09165395 0.21098442 -0.073613435 -0.039543565 0.03780956 0.23092006 -0.04515996 0.12359053 -0.16211744 -0.20609063 0.08478772 -0.1429444 -0.12977926 -0.102049306 0.12405158 -0.14025941 0.28796858 0.0979256 -0.042469442 -0.042105857 -0.011948415 -0.32764143 0.400452 -0.29582405 -0.19888607 -0.106383085 0.07154071 0.23642562 0.38198054 0.10100584 0.11158138 0.1558895 0.19847968 -0.19234549 -0.11931496 0.13371405 0.11885549 -0.29581136 0.089099675 -0.20237039 0.3422027 0.069552094 0.31488848 0.099598385 -0.016101977 0.06590152 0.18389456 -0.27686235 0.0037975644
24 0.13097396 -0.09871911 0.07053388 -0.11624598 -0.21145552 0.27163675 0.27322128 0.5138552 0.14392702 -0.41005623 0.14821605 -0.02399918 -0.06461978 -0.40557665 -0.053803258 -0.014410453 -0.12834541 0.08321678 0.08516856 -0.14452653 -0.35943523 0.45913187 0.3196978 -0.3040143 -0.16729097 0.06402636 0.21688661 0.070630655 -0.06704097 -0.37356943 -0.246868 0.42304242 -0.30941433 -0.5711406 0.17544189 0.424965 -0.030078964 -0.13615431 0.4679136 0.420807 -0.083598495 0.10939889 -0.28284475 0.38181487 0.04462084 0.26819703 0.10848541 0.45453525 -0.3914591 -0.013935728 0.122454956 0.2897117 -0.12729704 -0.4728451 0.08297403 0.16251747 0.0047966447 -0.09435228 -0.21686274 0.2681401 0.32830587 -0.21058576 0.057019375 -0.40791312 -0.208785 0.20480908 -0.22650619 -0.37508154 -0.16015023 0.39322537 -0.047022186 0.015932074 0.03806718 0.059979796 0.109324485 -0.4579853 0.33209038 -0.23784912 0.24925627 -0.106977716 0.21404573 -0.07927847 -0.05966541 0.040072586 0.23431434 -0.051453993 0.13025436 -0.18192795 -0.19053645 0.09910178 -0.14091775 -0.13047452 -0.10113305 0.12357896 -0.15341616 0.3073731 0.09987492 -0.034005858 -0.042104658 -0.0076744873 -0.32487613 0.4187228 -0.3068869 -0.19820954 -0.11717779 0.08023256 0.24813396 0.3974911 0.112860836 0.10682288 0.16120319 0.22775885 -0.19546598 -0.14240499 0.14219153 0.12030054 -0.30944324 0.07919129 -0.21167001 0.35377038 0.06403575 0.32036847 0.08183591 -0.018194098 0.07717227 0.18833452 -0.28374642 0.0137797585
2 0.13352893 -0.08654583 0.06879336 -0.10590835 -0.19118091 0.25575948 0.24764153 0.49928537 0.12617135 -0.38084114 0.13679177 -0.021245668 -0.06237753 -0.38669658 -0.044601638 -0.009130533 -0.113196924 0.08809849 0.07995161 -0.13490418 -0.3510425 0.44041178 0.31410712 -0.29474375 -0.16041666 0.05358326 0.20483762 0.06547072 -0.061539225 -0.34841308 -0.22602598 0.40114868 -0.29058206 -0.5490231 0.16372588 0.40568665 -0.02530266 -0.12506536 0.45121044 0.40131262 -0.06823381 0.1152974 -0.27019897 0.3628978 0.03543942 0.24951924 0.09585249 0.4257597 -0.36488482 -0.004466807 0.112239264 0.28059578 -0.11808618 -0.45159805 0.08547396 0.15588318 0.003941758 -0.086926594 -0.20717676 0.25882176 0.3114447 -0.20473886 0.053916655 -0.39285365 -0.1979004 0.19877303 -0.21380241 -0.351932 -0.14483987 0.37342295 -0.044765454 0.018678132 0.038353827 0.057286676 0.117937 -0.44765648 0.31880456 -0.23127696 0.23945445 -0.09985776 0.21155253 -0.08181024 -0.055357184 0.03912348 0.22621123 -0.04995663 0.12870125 -0.159996 -0.18008693 0.07990446 -0.13548408 -0.11762872 -0.09432746 0.12649187 -0.13736804 0.28987768 0.08993885 -0.03249537 -0.032888528 -0.004772195 -0.32037187 0.40008268 -0.29621512 -0.1943906 -0.09871485 0.08113233 0.2345015 0.3835453 0.10594887 0.10223243 0.15075564 0.2105471 -0.18033682 -0.132914 0.13131553 0.107166596 -0.30064234 0.07837353 -0.20607738 0.34056905 0.059195604 0.31436047 0.087365344 -0.016578658 0.07454762 0.17709178 -0.2748929 0.00621253
13 0.11891316 0.36670375 0.40193245 0.5269209 -0.36842898 0.42654294 0.18299495 -0.40997288 -0.16796806 -0.058760196 -0.06793575 -0.32498983 -0.19671886 -0.42723572 0.2769454 0.37151182 0.13489339 -0.48142275 0.6814775 -0.14598528 -0.08708206 0.24633862 0.28606093 -0.33825183 -0.37162915 0.059234947 -0.10047751 0.23517618 -0.17578712 -0.30234855 0.05944873 0.11138221 -0.7390266 -0.41305986 -0.26379478 0.11929658 -0.23089999 -0.5270911 -0.015229186 0.7711366 0.08059091 0.04418193 0.07922045 -0.2624563 -0.14495035 -0.584388 -0.44168857 0.029141417 0.47846392 -0.84810424 -0.002714041 -0.51416475 -0.5428627 -0.13245432 -0.11218885 -0.5744918 -0.5109746 -0.09092114 -0.67631614 0.5165879 -0.24426584 -0.15842098 0.10384337 -0.112258084 -0.2501379 -0.45657977 0.5278398 -0.14516139 0.49120998 -0.50002885 0.09745657 0.022404198 -0.6567972 0.20369516 -0.2633239 0.3439494 0.16724226 -0.25887102 0.42668757 0.39667457 -0.055819955 0.16696204 0.3651482 0.08690174 0.16689986 0.43720374 0.07231032 0.18807153 -0.664811 0.45253342 -0.5822444 0.20033854 -0.5577628 -0.21323344 -0.054709814 -0.48688868 0.56178075 -0.5899502 -0.30042034 0.04969051 0.21796085 0.12825127 0.013953446 -0.026741127 -0.15002961 -0.11074383 0.4608811 -0.0031222934 -0.21404608 0.108661324 0.30975062 -0.5517186 -0.98047656 0.18527378 0.15173988 0.4815177 0.29915878 0.27966446 0.25191814 -0.1869243 0.100905105 0.024531849 0.6844742 -0.3464699 -0.039581742 -0.3057379 -0.11053561 0.114955865
1 0.12989245 -0.0978457 0.07665172 -0.115124315 -0.19922775 0.2744698 0.26104504 0.4848434 0.13379012 -0.39685968 0.13600874 -0.024130197 -0.060875583 -0.39981228 -0.047370426 -0.02088978 -0.1258689 0.07618387 0.08756342 -0.14362372 -0.3394835 0.44678536 0.31675965 -0.2870256 -0.16172948 0.059756976 0.21300606 0.0790667 -0.06198657 -0.36170468 -0.24010503 0.40311974 -0.2934283 -0.54275113 0.17443275 0.40599293 -0.025922941 -0.13127756 0.4412699 0.40307802 -0.08733381 0.10526628 -0.2847789 0.35012293 0.040781625 0.24745981 0.10265156 0.42963037 -0.36831725 -0.017318133 0.11848552 0.26335928 -0.14513855 -0.44795105 0.0742851 0.1409035 -0.010719749 -0.094957 -0.20831463 0.26010692 0.30901664 -0.21146093 0.052515157 -0.39686605 -0.20143282 0.1891568 -0.20699306 -0.36488816 -0.15230171 0.36285603 -0.038209263 0.007610322 0.037159953 0.05285295 0.101324074 -0.44146237 0.32377666 -0.23064712 0.23986281 -0.101982325 0.20285392 -0.08067852 -0.056460302 0.05142191 0.22322287 -0.048542704 0.12866436 -0.16488518 -0.17944577 0.103684396 -0.1466416 -0.11102313 -0.100025564 0.11262701 -0.14925739 0.28756285 0.101924606 -0.042741705 -0.03258676 0.003222791 -0.2990063 0.39963743 -0.29637963 -0.18542476 -0.11519557 0.08093615 0.24010135 0.38500372 0.11121506 0.097842745 0.15542905 0.2141 -0.20587452 -0.13977309 0.1282961 0.11462173 -0.29384083 0.07776486 -0.19118091 0.3321186 0.058121026 0.30395016 0.087683246 -0.014815517 0.087418996 0.16572116 -0.26840383 0.022437964
0 0.121833615 -0.100319475 0.07033704 -0.11852092 -0.20284839 0.26037198 0.25772378 0.48592728 0.1383744 -0.39226842 0.13895135 -0.024920736 -0.05338993 -0.39309064 -0.05603673 -0.021463417 -0.12519012 0.07601004 0.085161924 -0.13592261 -0.33978876 0.43255693 0.30203417 -0.28309265 -0.15706109 0.0637402 0.20600626 0.06716273 -0.056945402 -0.3545741 -0.2326912 0.40010786 -0.28746754 -0.53913635 0.16935897 0.40471447 -0.024965374 -0.12425814 0.43486658 0.3967995 -0.08527694 0.104790166 -0.28062183 0.35468793 0.042357907 0.25666004 0.102775976 0.42838296 -0.37191194 -0.010707439 0.11276787 0.27304235 -0.1278926 -0.44440788 0.07347375 0.14653759 -0.005373996 -0.09291275 -0.20055218 0.2473832 0.30851036 -0.20477042 0.052679546 -0.39094985 -0.20025952 0.19581215 -0.21694331 -0.36163944 -0.15457892 0.3616423 -0.043722935 0.004781981 0.04450564 0.053119622 0.10156113 -0.43303025 0.31830168 -0.22440168 0.2367234 -0.10601114 0.19476883 -0.077703886 -0.05884241 0.044034954 0.22167279 -0.053839322 0.124787614 -0.16824415 -0.17609882 0.09795527 -0.14033891 -0.12290914 -0.092300564 0.11361121 -0.1457221 0.29169768 0.09633217 -0.031593565 -0.04000686 0.0036955762 -0.29936552 0.3966685 -0.2920677 -0.18213879 -0.11240294 0.07774256 0.22929245 0.37739453 0.1105591 0.10048526 0.1515543 0.21711448 -0.20216194 -0.14200546 0.13090055 0.119626 -0.2937673 0.069817744 -0.19151421 0.3393645 0.056087766 0.30028194 0.08086846 -0.017190019 0.08593215 0.17256136 -0.2645392 0.017801674
12 0.10114177 0.32639265 0.38623017 0.4712941 -0.3550438 0.42144695 0.17417197 -0.40169218 -0.14736721 -0.07196159 -0.060914982 -0.30062625 -0.16049342 -0.4025477 0.24907713 0.31901613 0.104492195 -0.4673069 0.6323341 -0.14751719 -0.06096916 0.22297055 0.26085103 -0.2963785 -0.33184788 0.048197713 -0.09288902 0.22933206 -0.15340796 -0.28635964 0.041638717 0.08567344 -0.6682338 -0.35990688 -0.23457547 0.09192461 -0.20115791 -0.47826087 -0.035327405 0.68644965 0.050980773 0.015195622 0.05915295 -0.25539097 -0.12524474 -0.52832717 -0.39100775 0.018122338 0.43197563 -0.7770592 0.0029091798 -0.50315654 -0.5204354 -0.10108582 -0.11632624 -0.5487544 -0.4888581 -0.09656077 -0.5973644 0.4587608 -0.22474323 -0.14864168 0.087885626 -0.092622966 -0.23083067 -0.4306428 0.47931674 -0.13965356 0.43414012 -0.47597238 0.10428129 0.01053563 -0.60063297 0.17037562 -0.26630762 0.34276533 0.14544243 -0.21961746 0.3768886 0.36687744 -0.07047872 0.14482844 0.3298133 0.09321764 0.12776993 0.3993685 0.06721515 0.17301458 -0.59132063 0.4317059 -0.53627926 0.182869 -0.5175535 -0.21350484 -0.05727549 -0.4568049 0.5202296 -0.54235816 -0.27044055 0.053762935 0.22623003 0.107247494 0.012049378 -0.014305563 -0.14432687 -0.10564444 0.41965523 -0.0041184444 -0.18928276 0.0887206 0.2857123 -0.4999579 -0.9157802 0.16067906 0.12878226 0.44363597 0.273501 0.25195086 0.23993 -0.18876359 0.06893527 0.010668678 0.62319565 -0.3117433 -0.010983154 -0.28847858 -0.08875826 0.121136494
11 0.06662428 0.23219983 0.28940472 0.3535059 -0.30644342 0.34593183 0.15000549 -0.299497 -0.10131552 -0.08931404 -0.0478927 -0.2508479 -0.121944636 -0.34549817 0.18548946 0.23406187 0.07356806 -0.37325564 0.51875836 -0.12035167 -0.06546878 0.19091497 0.21478221 -0.24501972 -0.26419964 0.04548175 -0.05930291 0.18424492 -0.1025526 -0.24708147 0.01997539 0.08398969 -0.5483463 -0.2906426 -0.16968141 0.10360565 -0.15517005 -0.3821734 -0.0115240095 0.55419785 0.014779579 -0.0030478858 0.022058353 -0.18408468 -0.08512755 -0.3885812 -0.28212637 0.05048318 0.31416613 -0.6130947 0.013662708 -0.384228 -0.40496492 -0.098695956 -0.097571455 -0.43320993 -0.39250824 -0.07816978 -0.47234938 0.35729286 -0.15241797 -0.12161229 0.07723559 -0.08604228 -0.20350938 -0.32217965 0.36084273 -0.12990597 0.3173728 -0.35427085 0.072527364 0.0020986472 -0.47132525 0.1322673 -0.22595951 0.26155394 0.12835689 -0.16929369 0.30667922 0.2792052 -0.07742624 0.12697555 0.26556733 0.06925607 0.10207958 0.313263 0.047983684 0.11829228 -0.46332148 0.35996655 -0.43200636 0.12083935 -0.42180106 -0.16982684 -0.04703388 -0.34298152 0.4233344 -0.4296737 -0.20616537 0.033207048 0.17448825 0.08846377 -0.0037400112 -0.009553325 -0.13603845 -0.08656436 0.34304783 0.008987791 -0.13658217 0.07096086 0.22097543 -0.3624566 -0.72954094 0.1018007 0.11403763 0.37164634 0.20417775 0.18140791 0.17645672 -0.13858582 0.044723064 0.021299714 0.4715247 -0.23744752 -0.0005681129 -0.21946989 -0.07644239 0.111221045
10 -0.04447391 -0.33189645 0.23440568 -0.32086658 -0.19707623 0.50458723 0.24397275 -0.17698179 0.13090843 -0.3001884 -0.055046495 -0.061605748 0.14330705 -0.35250232 -0.056573592 -0.34125873 -0.26903597 -0.22773154 0.102375016 -0.32303548 0.2523955 0.20445253 0.1308304 0.141836 -0.023304984 0.0049313596 0.16387323 0.30458534 0.024419105 -0.282747 -0.3081795 0.06462002 0.061777357 0.058699742 0.16362742 -0.044993892 0.12772407 0.004233171 -0.09255536 0.004974095 -0.3662218 -0.19943684 -0.37193385 -0.21074855 0.11495898 0.015337317 0.21605423 0.018188933 -0.16470821 -0.18616313 0.12748966 -0.32474306 -0.6170597 0.091998085 -0.19266675 -0.22591795 -0.27399707 -0.23181008 0.13912454 -0.099944144 0.097742066 -0.15798758 -0.09530741 -0.06422935 -0.110423654 -0.15156862 -0.07789252 -0.27374312 -0.22386679 -0.16227669 0.21696354 -0.22336051 0.19480845 -0.12486875 -0.23181613 -0.0061496506 0.168343 0.1467657 0.012306329 -0.10833581 -0.06777979 -0.05153052 -0.18430182 0.19463421 -0.10043363 -0.08731522 0.17764044 -0.0893306 0.18671788 0.34880143 -0.15720662 0.1923392 -0.06276453 -0.14175038 -0.18962383 -0.012358893 0.2760805 -0.1461628 0.05650296 0.1796559 0.33985656 0.1702824 -0.15016174 0.120403215 -0.13487549 0.032460425 0.11556408 0.16533221 0.12404646 -0.07947333 0.1865612 0.1567462 -0.43749502 -0.22754286 -0.053581204 0.1298692 0.017084572 -0.023677079 0.06306723 -0.07345968 -0.214582 -0.016688269 0.056786783 -0.106230095 0.3680485 -0.22606415 -0.021546239 0.27814078
9 -0.46513942 -0.24740411 0.030631447 -0.24617226 -0.64170825 0.36247805 0.2771886 -0.34671798 0.39853904 -0.41539043 0.12890638 -0.25757074 0.18927687 -0.27996475 -0.36260992 -0.262327 -0.32742864 -0.585047 0.37936342 -0.18551005 0.10868066 -0.015008361 -0.078405924 0.15531944 -0.03031312 0.16564652 0.104021855 0.12593813 0.13702008 -0.2621927 -0.4095994 0.022979753 -0.21770528 0.049648907 0.05526082 0.21323977 -0.11995705 -0.40127423 -0.07374732 0.09993849 -0.38757783 -0.34622186 -0.26846266 -0.25142592 0.22223495 0.30579403 0.32659662 0.34218413 -0.15533532 -0.45881358 -0.00691461 -0.2856987 -0.3329815 -0.048270747 -0.3130096 -0.34199464 -0.3624443 -0.19187883 -0.099413134 -0.034542955 0.09569122 -0.14335315 0.032407746 0.1584453 -0.27145278 -0.0658595 -0.108674824 -0.38809738 -0.3003255 -0.038630184 -0.13574086 -0.33316514 -0.082350224 0.08647774 -0.4664168 0.30034873 0.092330106 0.15020739 0.09890132 0.03785326 -0.5243426 0.29807535 0.004877568 -0.038434062 -0.1096225 0.1906917 -0.074051246 -0.37196252 -0.13062386 0.6978507 -0.2410821 -0.065034844 -0.25053567 -0.3266537 -0.21229015 -0.00095587195 0.3446253 0.005256504 -0.21410608 0.08079547 0.283824 0.14864552 -0.10834697 0.24359782 -0.5215896 -0.13711183 0.28121984 0.0696735 0.11978317 -0.071390375 0.17076394 0.25703958 -0.6390199 -0.33286878 0.21104811 0.4277594 0.19685075 -0.24484937 0.2624717 -0.056105517 -0.18761043 -0.19647482 -0.16453521 -0.12414627 0.21870053 -0.23413895 0.13181095 0.24723086
