30 128
29 -0.074880816 0.05400172 -0.06740458 0.16188337 -0.24746749 0.123623095 0.11781444 -0.11053338 0.20666401 0.0304374 -0.07230885 -0.099337764 -0.111083835 -0.33044752 0.1414849 -0.16571605 -0.1876388 -0.0043257056 -0.005022351 0.023029165 0.018154463 -0.02503701 -0.07402608 -0.07107242 0.08299997 -0.12250397 0.21887968 0.09727091 -0.17044397 0.037896488 0.05080064 -0.30822098 0.07682651 -0.13094957 0.14246741 0.1058003 -0.13655145 -0.04408982 0.058689546 -0.28682446 -0.08658162 0.16784649 -0.07241013 0.062400885 -0.024107669 0.036182724 -0.07311022 -0.108016506 0.05045518 -0.1640252 0.14927079 0.111747555 0.03792239 -0.056797244 0.23670661 -0.008542396 -0.012828905 -0.4013146 0.15725951 -0.22468333 0.21980144 0.071113795 -0.21910809 -0.11491549 -0.22145106 -0.004255025 -0.08577272 -0.006512589 0.14959922 0.22831032 -0.05807372 0.055373482 0.04713642 0.05996241 -0.044814035 -0.029018657 0.086276285 0.046659898 0.0070178425 -0.03007338 -0.0008458686 -0.1244721 -0.19317035 0.08195058 -0.029105883 -0.18335477 -0.0070267757 0.14766964 0.028821457 0.13266502 -0.118864685 0.08485795 0.16653001 0.09041609 -0.048843123 0.080400184 0.22442071 0.13353306 -0.041483182 -0.024406943 -0.17970495 -0.052039046 0.004644967 0.04354743 -0.08398189 0.1880628 -0.10939579 0.083251394 0.036800317 -0.049772535 -0.15489891 -0.16433376 0.06295845 0.076146275 0.017796407 -0.09074221 0.008286552 -0.0024360279 0.21798448 -0.16364987 0.043674305 -0.18150231 0.034879703 0.10743429 -0.06394675 -0.10019721 0.018271772 -0.006159359
28 -0.0703837 0.06037126 -0.06263416 0.16974767 -0.23948096 0.12729448 0.1159157 -0.107397705 0.1985233 0.026436897 -0.08182253 -0.09975088 -0.10657014 -0.33194312 0.13623011 -0.16265148 -0.17897408 -0.009092331 -0.005394373 0.017085655 0.020363158 -0.02904256 -0.06377403 -0.07339106 0.0813096 -0.12281238 0.22130542 0.10489103 -0.16153307 0.03621413 0.055689875 -0.30658597 0.083130546 -0.12909888 0.13904136 0.10331554 -0.13900983 -0.03234206 0.0557337 -0.2801268 -0.086328804 0.16809082 -0.06677586 0.070856325 -0.02565219 0.03712825 -0.07175474 -0.108577594 0.05209029 -0.15608153 0.14558211 0.11501094 0.03116404 -0.060919482 0.22667368 -0.004577894 -0.02086081 -0.39205775 0.15955004 -0.22039363 0.21564393 0.06978458 -0.21374616 -0.11717411 -0.23326887 0.0019242076 -0.078866646 -0.010341282 0.15065828 0.22817859 -0.06299655 0.05483961 0.045408353 0.065245256 -0.045086302 -0.027401866 0.089727 0.04317422 -0.0005617209 -0.034966443 0.0029079386 -0.134429 -0.18942998 0.09023638 -0.03205134 -0.19094509 -0.00538044 0.15493946 0.031034652 0.1256674 -0.123212166 0.08357559 0.17409602 0.09511782 -0.05258564 0.08610158 0.22627206 0.13577312 -0.045625113 -0.03420883 -0.18701525 -0.053482533 0.010343967 0.049829386 -0.08843923 0.18727845 -0.10546223 0.07860075 0.03629164 -0.051154274 -0.1625799 -0.16308491 0.055830676 0.083834335 0.015014043 -0.09201988 0.0107522905 0.0024129122 0.22354424 -0.16907029 0.042567555 -0.18604334 0.029076105 0.10915434 -0.06499755 -0.09933822 0.02040251 -0.0075117843
27 -0.07144879 0.050734434 -0.06370119 0.15965024 -0.22937459 0.120759785 0.115285166 -0.10648204 0.19692811 0.026909105 -0.07192188 -0.09450707 -0.10257726 -0.3192759 0.13504398 -0.15923162 -0.18019544 -0.006968909 -0.0024842753 0.021335043 0.015427074 -0.030502113 -0.06951603 -0.06605401 0.08029766 -0.11959752 0.22170721 0.099991694 -0.16358297 0.033804722 0.050059326 -0.30380538 0.077194706 -0.13171896 0.13562061 0.10570714 -0.14148523 -0.040708162 0.060814086 -0.28255707 -0.08786996 0.16800527 -0.071453124 0.062046055 -0.029106438 0.031754605 -0.07383439 -0.10623851 0.05019942 -0.15521182 0.15038325 0.11980623 0.034874752 -0.062210966 0.23072366 -0.0050337235 -0.016396677 -0.40231654 0.16219532 -0.22823158 0.21969734 0.06947555 -0.214979 -0.11851207 -0.22792792 0.0027853528 -0.07775784 -0.010266953 0.14897138 0.22667831 -0.062374715 0.04910757 0.040971104 0.062359054 -0.041799653 -0.03069318 0.08609419 0.039104648 -0.0030521166 -0.029901644 0.005588066 -0.12864505 -0.18763408 0.091625795 -0.02942247 -0.18398915 -0.0012736353 0.14702627 0.035157986 0.12245421 -0.12328631 0.07858403 0.17808115 0.092964925 -0.048096716 0.08643309 0.21924849 0.13539045 -0.045515362 -0.028072894 -0.18274333 -0.05130729 0.0084145935 0.044285413 -0.08860717 0.18185769 -0.10406253 0.07214417 0.03684233 -0.050025046 -0.15297738 -0.16562372 0.055948045 0.07690545 0.011487252 -0.087466314 0.012118343 0.004288297 0.2212558 -0.16306691 0.04410043 -0.1847211 0.027790718 0.10563618 -0.0685511 -0.09764548 0.013607604 -0.004533984
26 -0.0734135 0.05619914 -0.066219404 0.16152272 -0.24305947 0.11855255 0.11663393 -0.10778765 0.19982426 0.03141721 -0.075862266 -0.10348792 -0.10593485 -0.32864407 0.13848196 -0.16134113 -0.18775636 -0.002280234 -0.00019859821 0.027131543 0.018859047 -0.031718608 -0.072088964 -0.07212289 0.08333832 -0.1263438 0.22066304 0.10163306 -0.16757008 0.033102326 0.0553396 -0.31553972 0.07800538 -0.12879029 0.13667257 0.10648298 -0.13955024 -0.041213606 0.05672535 -0.27970508 -0.09134215 0.16529147 -0.07075601 0.061332952 -0.025767904 0.038242534 -0.06792428 -0.10155286 0.052516818 -0.16405322 0.14817958 0.11647958 0.03855264 -0.059343964 0.23221909 -0.010987252 -0.018862987 -0.40696007 0.16123012 -0.22877885 0.21790995 0.076227434 -0.21073653 -0.119287275 -0.22397791 -0.0026611288 -0.07871004 -0.010347248 0.14498867 0.23019335 -0.06325547 0.053691443 0.0418458 0.055634316 -0.046386026 -0.029301016 0.08673172 0.039069843 0.0009533399 -0.02860847 0.0011082138 -0.124978095 -0.19026875 0.08789442 -0.036103424 -0.1870682 -0.0063795866 0.15236144 0.032431062 0.13028236 -0.12315401 0.07892073 0.17207491 0.09738505 -0.048242707 0.07882236 0.22739291 0.13981189 -0.043178983 -0.024069114 -0.18244235 -0.058987964 0.009831542 0.043775618 -0.089618154 0.19075792 -0.105987884 0.08180442 0.035134424 -0.04759801 -0.16195808 -0.16181512 0.059608113 0.07764675 0.007790225 -0.088621534 0.011482242 0.0037704716 0.21691464 -0.16193935 0.04189572 -0.18192592 0.027236965 0.10902925 -0.07010383 -0.09969409 0.015958399 -0.007434037
12 -0.07263314 0.068117805 -0.059053127 0.17685284 -0.16773377 0.118884936 0.10265749 -0.095385514 0.13620467 0.028100245 -0.109700285 -0.07213738 -0.06289801 -0.25235677 0.10784004 -0.12400255 -0.15375528 -0.024533581 -0.03431961 -0.011941433 0.015033617 -0.023398401 -0.0360185 -0.08466205 0.0565132 -0.11924045 0.20108545 0.112094164 -0.11922628 0.042428456 0.04104922 -0.2511465 0.08781156 -0.1327968 0.11212196 0.095966436 -0.12664199 0.010930697 0.0498814 -0.27394816 -0.08288441 0.15313378 -0.07121972 0.09592797 -0.038983583 0.032410134 -0.035964523 -0.124732316 0.053069912 -0.14351304 0.13471839 0.1133631 0.025243716 -0.058103982 0.1975554 0.029664872 -0.04757561 -0.38015485 0.16472684 -0.20127513 0.22650899 0.06516301 -0.20773403 -0.105251536 -0.29071593 0.016986998 -0.04582415 -0.034012683 0.15814407 0.24330562 -0.06451443 0.056647994 0.038550455 0.09403242 -0.033284545 -0.0031798943 0.06586355 0.026071789 -0.03466593 -0.06281892 0.026492199 -0.14720872 -0.1438967 0.10018305 -0.03103855 -0.18925257 0.0075636595 0.1576272 0.04541749 0.08212879 -0.13016935 0.08035329 0.18082812 0.08068606 -0.03766792 0.09565111 0.19904207 0.123951465 -0.06780957 -0.052103505 -0.18103139 -0.06638596 0.010205061 0.072776824 -0.06488627 0.15477397 -0.092328124 0.06393128 0.032089982 -0.041187238 -0.15093403 -0.15284555 0.03386235 0.098729104 0.006057055 -0.09710061 0.022921931 0.0270984 0.22792031 -0.17394143 0.013654777 -0.19900906 0.0038135904 0.094064385 -0.065861546 -0.08513141 0.037455466 -0.020226745
10 -0.07607896 0.06505821 -0.058528535 0.17324506 -0.1782987 0.11725932 0.102966875 -0.09770881 0.13866864 0.026691586 -0.1073196 -0.077302456 -0.06740611 -0.25610778 0.11223515 -0.1268217 -0.15317369 -0.02569119 -0.026152438 -0.014420097 0.018950539 -0.025404345 -0.045857016 -0.08047654 0.056722954 -0.11955519 0.20070305 0.1110487 -0.12604389 0.045600012 0.03752731 -0.25971907 0.07932081 -0.12676248 0.11429415 0.10023765 -0.12993307 0.0030340336 0.047161296 -0.2624118 -0.07796543 0.15293792 -0.06561522 0.09479442 -0.035549447 0.030604 -0.036665384 -0.11981577 0.047681186 -0.1339477 0.12960586 0.10776916 0.029908601 -0.058277443 0.19954184 0.023452237 -0.041513745 -0.36990035 0.16316487 -0.1901615 0.21853139 0.06252858 -0.20906979 -0.10530774 -0.29211468 0.011707799 -0.05061216 -0.026485754 0.15442939 0.24237534 -0.071490765 0.05308674 0.04503438 0.0872261 -0.039322503 -0.003107278 0.07346521 0.025554623 -0.032216106 -0.06295066 0.017731471 -0.15270656 -0.16281351 0.10131364 -0.032221433 -0.19155237 0.008158037 0.15924291 0.043846924 0.09406172 -0.13558412 0.083235055 0.18449436 0.0877957 -0.042143416 0.10654237 0.21312064 0.1308473 -0.06949577 -0.051200002 -0.18725608 -0.06681335 0.01537112 0.07480327 -0.076434724 0.17351675 -0.099383965 0.06755815 0.03299347 -0.042151418 -0.15634784 -0.16199204 0.040948357 0.103064716 0.0067460267 -0.09640227 0.023555465 0.02750343 0.24294136 -0.17641278 0.023360187 -0.20856835 0.00909067 0.09870659 -0.07249719 -0.08823417 0.035102468 -0.018387804
13 -0.080956794 0.07947405 -0.057639718 0.19560802 -0.1754962 0.13042477 0.108944036 -0.1047571 0.13475086 0.026983574 -0.13077606 -0.067664795 -0.06350151 -0.25280207 0.115530916 -0.13207166 -0.15173712 -0.029410504 -0.041916713 -0.03063361 0.014843023 -0.0259978 -0.03534098 -0.097319365 0.048661277 -0.12582941 0.20816755 0.11960487 -0.12363905 0.052328896 0.03829543 -0.25158033 0.09361466 -0.1282071 0.1071802 0.09783782 -0.13327345 0.020057203 0.047277212 -0.2820678 -0.07504092 0.15416767 -0.067544766 0.111447625 -0.045715686 0.02912452 -0.029688124 -0.12730147 0.051993344 -0.13605456 0.13192941 0.105542414 0.030504927 -0.05987197 0.18938704 0.040584687 -0.06023265 -0.38754973 0.16957882 -0.19515821 0.2303412 0.066340536 -0.2171411 -0.1098569 -0.31974632 0.021129118 -0.040928144 -0.039669648 0.15926383 0.25496307 -0.07251142 0.054964583 0.043275286 0.09937547 -0.03769982 0.0032581848 0.06576008 0.01999815 -0.03968401 -0.07324458 0.030950267 -0.15166101 -0.14600801 0.10229772 -0.034752995 -0.19883971 0.012504638 0.16547285 0.04539638 0.076240525 -0.13548273 0.09124615 0.18970735 0.083889104 -0.03666254 0.11136197 0.19416621 0.11961742 -0.08187569 -0.057299178 -0.18373229 -0.06707721 0.011476355 0.08140154 -0.06252803 0.15496509 -0.094385475 0.057095222 0.03719195 -0.03952106 -0.14427385 -0.1585518 0.035717092 0.10728171 0.0104735885 -0.09577129 0.024535771 0.03686795 0.23730539 -0.17910606 0.008484474 -0.20502156 0.0018850368 0.092941776 -0.068518505 -0.08010351 0.04081777 -0.020022074
14 -0.077900514 0.0703587 -0.057011906 0.17829408 -0.16594984 0.12237377 0.104598634 -0.095130235 0.13181227 0.02781734 -0.11701316 -0.07242303 -0.05871691 -0.24428314 0.10562055 -0.12717125 -0.15184702 -0.028254127 -0.038572382 -0.023140624 0.015505295 -0.023505535 -0.03492992 -0.08855014 0.052307576 -0.11654315 0.1938047 0.11328802 -0.12030737 0.043623686 0.034724098 -0.24461576 0.08991311 -0.13109167 0.108324654 0.10174747 -0.12699507 0.018679215 0.049328625 -0.2742807 -0.07655677 0.15440825 -0.0675284 0.101240695 -0.04176569 0.02844902 -0.03417677 -0.120913975 0.053680245 -0.13534397 0.13001096 0.111544065 0.023642948 -0.058436323 0.19207959 0.03527387 -0.04974767 -0.37097287 0.16755697 -0.19141683 0.2176686 0.06797935 -0.20862256 -0.1054462 -0.2988627 0.018221715 -0.04708049 -0.038105156 0.14993006 0.24090604 -0.07273221 0.05080271 0.042164143 0.099271014 -0.035561003 0.0021804522 0.06380923 0.021750754 -0.039259747 -0.07019028 0.026102223 -0.14762397 -0.14127928 0.09748812 -0.029901043 -0.1912277 0.015102158 0.15666819 0.044486314 0.07461687 -0.13215898 0.07926826 0.18416587 0.0882818 -0.037624747 0.106090456 0.19477767 0.11731437 -0.075485274 -0.05656795 -0.18164806 -0.06781638 0.013969024 0.07838939 -0.061205674 0.15479116 -0.09275797 0.056885976 0.032383192 -0.04274657 -0.14505015 -0.15431124 0.03664785 0.10005983 0.006427105 -0.093977116 0.026091605 0.033003744 0.23330905 -0.16994731 0.012151745 -0.19891702 0.002776611 0.09648476 -0.06424313 -0.07952503 0.035357043 -0.019952675
9 -0.078249484 0.076542005 -0.054317016 0.18349338 -0.16649164 0.123812266 0.107523136 -0.095226504 0.13516241 0.030856943 -0.116393484 -0.07441488 -0.0634151 -0.25101724 0.10779884 -0.12966594 -0.15944187 -0.028056359 -0.041183885 -0.025410097 0.011098431 -0.026682384 -0.0356112 -0.09575447 0.05505966 -0.12580508 0.20664361 0.11693107 -0.12786265 0.044606153 0.039144974 -0.25882134 0.09049977 -0.13495968 0.1101811 0.103629544 -0.12968974 0.019794183 0.044682473 -0.28194898 -0.08053068 0.15838209 -0.069144815 0.10127985 -0.039466266 0.03156339 -0.029616948 -0.13082708 0.051628385 -0.1373375 0.13068485 0.111846946 0.028266493 -0.059977293 0.19367702 0.033903927 -0.053212397 -0.37738892 0.17187543 -0.1967568 0.22351459 0.068428814 -0.21082687 -0.10990049 -0.30264753 0.018356947 -0.04398657 -0.032576 0.15611266 0.2471848 -0.07180569 0.053011812 0.039294478 0.103238575 -0.031276744 0.001821857 0.06389519 0.020918002 -0.042858567 -0.07433338 0.0251085 -0.15447938 -0.14121617 0.10313745 -0.031652298 -0.18966047 0.013493082 0.15648802 0.050665326 0.07431106 -0.13410667 0.08730194 0.18300392 0.085650824 -0.03196839 0.10592371 0.19324052 0.12026245 -0.07431353 -0.05621815 -0.18494435 -0.06653325 0.007116825 0.07675281 -0.061735604 0.15399037 -0.096190594 0.058871116 0.030469574 -0.041152917 -0.14827557 -0.16035089 0.035469346 0.10276303 0.009308431 -0.097842775 0.023467481 0.031007262 0.22686258 -0.17400374 0.01640629 -0.20151071 0.0037158502 0.09657447 -0.06259206 -0.083777346 0.040993262 -0.015410042
11 -0.069982044 0.06820531 -0.06303471 0.17603347 -0.18299693 0.12372117 0.10893162 -0.100851946 0.14616162 0.031026807 -0.10664316 -0.08088254 -0.06651677 -0.26563442 0.11398198 -0.12981144 -0.16606869 -0.020666013 -0.03038836 -0.00725784 0.016251462 -0.022682033 -0.04862504 -0.08234807 0.061283153 -0.12424278 0.20938395 0.11746212 -0.1312274 0.040469933 0.0399545 -0.2723621 0.08752251 -0.13434157 0.112853885 0.0986699 -0.131891 0.0052955095 0.046941258 -0.27399868 -0.083257005 0.15478475 -0.070290685 0.09730219 -0.039823648 0.027443497 -0.035159867 -0.12141246 0.04797647 -0.13829568 0.1347048 0.10775717 0.031293664 -0.055962007 0.20105612 0.025981165 -0.04365524 -0.37496015 0.16192894 -0.2012496 0.21655934 0.06467136 -0.20114781 -0.10290395 -0.2769727 0.014336212 -0.046116274 -0.03324921 0.14917171 0.23268527 -0.06569323 0.053855974 0.04337723 0.08261663 -0.03333306 -0.0029181761 0.06689607 0.023980888 -0.031504218 -0.05791653 0.022192797 -0.14478146 -0.14305094 0.093706116 -0.035744797 -0.18484592 0.0050193174 0.1565854 0.039968118 0.08375519 -0.12620687 0.083094634 0.17938845 0.08687509 -0.03881584 0.09475819 0.19942665 0.12474267 -0.06654149 -0.04461616 -0.1789543 -0.067321375 0.009416686 0.067689024 -0.06688333 0.16340521 -0.096513264 0.06460885 0.03091684 -0.042530917 -0.15048255 -0.1570413 0.036751248 0.09561003 0.0067571606 -0.09668058 0.020062149 0.024383022 0.225354 -0.16491646 0.02232741 -0.19037744 0.009702916 0.089812085 -0.06443784 -0.08568477 0.03250898 -0.017089173
8 -0.07529574 0.075679876 -0.056891833 0.1852767 -0.17376155 0.12727383 0.103428245 -0.09877251 0.1354965 0.0319904 -0.118968025 -0.07443747 -0.06451155 -0.25540206 0.11088254 -0.12768282 -0.14975445 -0.030910332 -0.03819056 -0.022030383 0.013363563 -0.022550674 -0.032528255 -0.08845893 0.048033565 -0.11495434 0.19538596 0.11005926 -0.11720523 0.047503665 0.039058656 -0.24551673 0.082836 -0.12205437 0.105843976 0.098838314 -0.1292041 0.017379003 0.03966915 -0.270943 -0.0797536 0.15429091 -0.06477896 0.10257793 -0.03730165 0.02323205 -0.031251613 -0.123125255 0.05572101 -0.1338443 0.1276135 0.10287166 0.02371743 -0.059821907 0.18734077 0.037045456 -0.047452975 -0.3680273 0.1653346 -0.18520948 0.21793069 0.0618927 -0.20636152 -0.099887066 -0.29557982 0.020463416 -0.04226871 -0.033578113 0.15518296 0.23684438 -0.06495624 0.05710616 0.04374042 0.09712885 -0.036740176 0.003944592 0.06756737 0.017274734 -0.041150045 -0.06947249 0.024238147 -0.14758821 -0.14072278 0.100480855 -0.027572129 -0.1845995 0.014438792 0.15568885 0.044463817 0.07728624 -0.12742124 0.08128728 0.18076031 0.07924173 -0.034913857 0.0979286 0.1924659 0.124341965 -0.072628774 -0.049685623 -0.17377207 -0.060469776 0.008731665 0.07572892 -0.06584222 0.15029624 -0.09062338 0.055885084 0.033667114 -0.04292132 -0.14778496 -0.15432855 0.03465038 0.10134091 0.011840137 -0.09657341 0.026002187 0.029473707 0.2264598 -0.17402355 0.01124817 -0.19952579 0.0071041384 0.09016942 -0.06490424 -0.076969214 0.038935497 -0.01847482
15 -0.07382918 0.07259863 -0.057925418 0.17668915 -0.18346865 0.12551862 0.10458565 -0.10456275 0.1522079 0.030840928 -0.11038248 -0.07630437 -0.07485704 -0.2731391 0.120560564 -0.13241315 -0.15999971 -0.025316982 -0.029091192 -0.008872228 0.019483712 -0.026321808 -0.042189892 -0.08125926 0.06166605 -0.12751396 0.2078482 0.11606441 -0.12909146 0.044883173 0.040306542 -0.27336758 0.089845866 -0.1255802 0.11932361 0.1016365 -0.13521215 0.005263678 0.04427033 -0.27546838 -0.07559479 0.15219083 -0.06950981 0.09514115 -0.03517552 0.027463816 -0.03690108 -0.118096605 0.047784936 -0.13710761 0.13432613 0.10620548 0.0335837 -0.05667494 0.19772264 0.021501595 -0.045724817 -0.3821821 0.16403496 -0.20396414 0.21570392 0.066333406 -0.20492914 -0.10253903 -0.28169018 0.014983198 -0.048708145 -0.033006534 0.14753594 0.2387764 -0.06629363 0.053564165 0.042515095 0.08169749 -0.041283246 -0.003953684 0.06820921 0.026593948 -0.030248662 -0.059081614 0.0151709 -0.14169414 -0.15279634 0.10002704 -0.036929782 -0.18713012 0.009895272 0.15685336 0.035482753 0.08693899 -0.122152455 0.083644286 0.17803 0.08837468 -0.03526624 0.10126152 0.2000421 0.12654778 -0.06748696 -0.047198914 -0.17621374 -0.061927434 0.014732743 0.065685414 -0.07357641 0.1636894 -0.0950564 0.06709324 0.037833743 -0.037260313 -0.14982131 -0.15064943 0.034947377 0.08830303 0.0076603172 -0.092101164 0.023054745 0.0219249 0.21913476 -0.16723016 0.021663466 -0.18535365 0.014028743 0.0912484 -0.063914426 -0.087900735 0.03512573 -0.009769887
7 -0.07456153 0.07412484 -0.05528258 0.1764911 -0.17595059 0.116757885 0.10168883 -0.09774362 0.13683333 0.025812475 -0.10766931 -0.07180836 -0.063686565 -0.25925207 0.10875182 -0.12706666 -0.15678757 -0.02371146 -0.028767083 -0.018793717 0.014325325 -0.024091251 -0.04157995 -0.087185584 0.053570326 -0.12446808 0.2061182 0.11234608 -0.12890975 0.043599825 0.039322734 -0.25914398 0.084665984 -0.13138318 0.11577333 0.100692905 -0.13296166 0.012844406 0.046709105 -0.27687636 -0.07892605 0.15883853 -0.0704526 0.098459214 -0.040725414 0.03343253 -0.033528484 -0.121408425 0.05308707 -0.14252129 0.1375908 0.10813485 0.027253544 -0.05871189 0.20125088 0.031080533 -0.04759751 -0.38423285 0.17112248 -0.19960423 0.22646916 0.068825625 -0.21436197 -0.10630524 -0.30012375 0.017485106 -0.048741058 -0.034849364 0.15792786 0.24933213 -0.07200545 0.053683672 0.04171991 0.09344253 -0.041297883 -0.0037398732 0.0706482 0.025547506 -0.032974154 -0.06447399 0.024169948 -0.15377457 -0.14987372 0.104322106 -0.03806907 -0.1905348 0.00899948 0.16143556 0.04588807 0.08345367 -0.13049525 0.08534819 0.18628052 0.08543814 -0.03944378 0.10722808 0.20639826 0.12929004 -0.07254066 -0.053839657 -0.18547864 -0.07096148 0.013643706 0.076870404 -0.07384442 0.16887958 -0.09770371 0.06223626 0.03191374 -0.042115204 -0.15119934 -0.15981698 0.038853046 0.0990201 0.008347008 -0.09450239 0.022695126 0.027539175 0.23535554 -0.17809694 0.015963318 -0.20379253 0.009694309 0.097287126 -0.06785524 -0.08302963 0.038929407 -0.014532739
16 -0.07955612 0.07216178 -0.063232474 0.18376733 -0.18301329 0.12430897 0.10609488 -0.100082114 0.14939013 0.032038342 -0.11356874 -0.07518286 -0.07604192 -0.2732878 0.11771837 -0.13735141 -0.15538679 -0.022046022 -0.03403977 -0.01437537 0.017954187 -0.026589535 -0.03712067 -0.08667497 0.05363321 -0.11923287 0.2032567 0.1097929 -0.12512355 0.044319235 0.040782515 -0.2572338 0.088161856 -0.1241041 0.11436937 0.10065946 -0.13104641 0.010199953 0.048633374 -0.2749328 -0.08093092 0.15238132 -0.06614068 0.091484316 -0.038530223 0.025762655 -0.0379346 -0.11662489 0.054371297 -0.13895975 0.12849566 0.109679475 0.02742902 -0.062162552 0.19447877 0.02768999 -0.04689307 -0.37662333 0.16575585 -0.19552504 0.22081055 0.06829786 -0.20888275 -0.10823722 -0.28786796 0.015825666 -0.050071787 -0.03365177 0.15196717 0.23975205 -0.06545484 0.053512808 0.04207592 0.09270343 -0.039560225 -0.002878902 0.07029229 0.022318253 -0.033050198 -0.060241725 0.02419228 -0.14521654 -0.15470836 0.09625018 -0.03394485 -0.18955886 0.0054393914 0.16070382 0.04534154 0.08292416 -0.12862784 0.083164066 0.18215287 0.08381828 -0.037833244 0.09929898 0.20504625 0.124568745 -0.07067071 -0.046047308 -0.18143 -0.063886784 0.007733421 0.068728484 -0.06937753 0.15828876 -0.09666074 0.06280397 0.036318228 -0.040026966 -0.154158 -0.15796696 0.038561065 0.09335539 0.010909716 -0.09458996 0.024752896 0.023464981 0.22764279 -0.17210488 0.022652838 -0.19548312 0.007107558 0.09546376 -0.065667436 -0.08478178 0.034081757 -0.016224327
25 -0.06456677 0.053353705 -0.06064698 0.14954646 -0.22737451 0.107465886 0.109329164 -0.10124404 0.19513795 0.02598257 -0.06543872 -0.09327569 -0.096926466 -0.31133524 0.1360825 -0.1515879 -0.18619205 -0.0014461312 -0.00019336429 0.021970669 0.020972874 -0.026435554 -0.075526506 -0.06977213 0.077209555 -0.12273176 0.21572047 0.10321253 -0.16431381 0.037650675 0.04795758 -0.3088606 0.07997839 -0.13354903 0.14268646 0.0985338 -0.138973 -0.036962017 0.05894248 -0.27310434 -0.08911499 0.1654525 -0.064965546 0.05909314 -0.021827566 0.038552966 -0.07211539 -0.098848805 0.03976527 -0.1531877 0.14585476 0.11173813 0.0358755 -0.055638384 0.220157 -0.010177838 -0.020380396 -0.39360976 0.1605176 -0.22293529 0.20719464 0.07487201 -0.2005947 -0.10901729 -0.21572188 -0.0007572987 -0.07434918 -0.009721537 0.1403092 0.22400962 -0.058673687 0.045932345 0.04721222 0.05984825 -0.046063103 -0.031076012 0.08511481 0.045781326 0.0048597236 -0.028659495 -0.0007811559 -0.12460752 -0.18701969 0.089308135 -0.037328344 -0.1855129 -0.0030081423 0.1473408 0.027898444 0.124246806 -0.12255073 0.077276155 0.169551 0.093579195 -0.055050667 0.08235199 0.229569 0.13120954 -0.04048231 -0.029442145 -0.17700256 -0.05801049 0.005499255 0.042189095 -0.09153781 0.19019677 -0.10946743 0.07346128 0.036943614 -0.047285248 -0.15546577 -0.1646404 0.063224 0.07732435 0.010413997 -0.09561135 0.006424322 0.0006881926 0.22707151 -0.16605741 0.04385999 -0.18043484 0.029179763 0.10643115 -0.07027687 -0.10026745 0.019989744 -0.004032021
17 -0.07058122 0.066042565 -0.059428245 0.17379054 -0.19021606 0.11585301 0.10632574 -0.095849365 0.1611104 0.028724225 -0.09489206 -0.08389792 -0.07787756 -0.2808587 0.12271538 -0.1383716 -0.16503458 -0.017182367 -0.024457349 -0.0028950053 0.018826274 -0.021450594 -0.04732458 -0.08170852 0.06054031 -0.12148763 0.20589942 0.10634362 -0.13726932 0.04003297 0.04478342 -0.27418444 0.08852582 -0.13635069 0.124783665 0.10569068 -0.13478366 -0.012514264 0.048274163 -0.27633247 -0.08575285 0.16456063 -0.06693832 0.08638868 -0.033178452 0.034479067 -0.045982163 -0.1124939 0.048535418 -0.14334947 0.14143266 0.114328675 0.028778 -0.058831476 0.20969662 0.016419873 -0.038725745 -0.388226 0.16762254 -0.21007858 0.21338834 0.07355252 -0.2057212 -0.114015535 -0.26139653 0.013045068 -0.05505552 -0.027542073 0.15011364 0.2296514 -0.06710567 0.05119015 0.038710136 0.08137426 -0.03789944 -0.008727107 0.07187768 0.031428333 -0.017029995 -0.0503617 0.01615492 -0.14371401 -0.15872875 0.099160366 -0.038282968 -0.18250911 0.002461017 0.1575509 0.03477736 0.09970636 -0.12275959 0.078843355 0.18031931 0.09276547 -0.040831763 0.09221296 0.204648 0.1260527 -0.05574413 -0.038461104 -0.17563164 -0.066038884 0.006135644 0.06113407 -0.07115993 0.16794115 -0.09499766 0.07226436 0.031699333 -0.046208426 -0.15320376 -0.15498504 0.047668718 0.09156046 0.00736379 -0.09663112 0.016638976 0.018407837 0.22247285 -0.1678079 0.023432378 -0.18576053 0.015739685 0.09489425 -0.06321505 -0.08752638 0.027188078 -0.012509793
6 -0.0740603 0.06650678 -0.057171576 0.17100729 -0.18942775 0.115112744 0.101774864 -0.10128108 0.15298676 0.026670508 -0.09815413 -0.07752092 -0.07884606 -0.2713572 0.11834522 -0.1350315 -0.16252081 -0.019175254 -0.020389361 0.00075521256 0.018025015 -0.023675436 -0.045504384 -0.079426415 0.062063947 -0.119511895 0.20628232 0.10760817 -0.13498005 0.040205136 0.04106495 -0.26812786 0.07935169 -0.12735562 0.11737207 0.103889205 -0.1334661 -0.0047782497 0.045627516 -0.2755955 -0.0805419 0.15723659 -0.07154419 0.08343468 -0.03246051 0.033902377 -0.04630181 -0.11628504 0.05133362 -0.14179642 0.1345126 0.10838253 0.029915445 -0.06184873 0.20124638 0.020077864 -0.03753583 -0.3801102 0.16001886 -0.20475005 0.21847321 0.06753772 -0.20633666 -0.108201236 -0.26721254 0.01148424 -0.054271862 -0.024174979 0.14935748 0.23319352 -0.06403121 0.053226713 0.04130848 0.08382011 -0.040664792 -0.010690786 0.07748087 0.026565984 -0.02546183 -0.055870824 0.020250158 -0.1433756 -0.1583845 0.10088898 -0.036668472 -0.18934023 0.0061210888 0.15467301 0.04159905 0.09593722 -0.12663928 0.0827166 0.17909388 0.091232024 -0.044321325 0.09723284 0.20934373 0.124735676 -0.061903667 -0.04521949 -0.18089478 -0.06524336 0.010527719 0.06384441 -0.07508804 0.16780432 -0.09862733 0.06631499 0.036400445 -0.04867434 -0.15424453 -0.16193737 0.045811243 0.09285152 0.008150868 -0.096351996 0.016988037 0.02020631 0.22797719 -0.1674769 0.026201747 -0.19172071 0.017302414 0.10101472 -0.06654929 -0.08748931 0.026178157 -0.011085216
18 -0.071097866 0.071824044 -0.062695935 0.18026102 -0.19239251 0.12720709 0.10330392 -0.10009902 0.15758936 0.032859705 -0.10689291 -0.07826281 -0.07684126 -0.28064707 0.12207752 -0.1352949 -0.16510373 -0.021272253 -0.026249427 -0.0024071245 0.0127556315 -0.025345108 -0.046511915 -0.08667684 0.06369661 -0.1253529 0.21270089 0.11022082 -0.13492678 0.04177458 0.045506615 -0.27188942 0.08572578 -0.1305077 0.12585787 0.10292489 -0.13695952 -0.0019158152 0.049807567 -0.28915197 -0.084561355 0.16720288 -0.0717148 0.0949165 -0.03566142 0.032416973 -0.047830667 -0.118139796 0.053143114 -0.14445971 0.1409925 0.1116777 0.03403197 -0.060054902 0.21104254 0.021906089 -0.042981975 -0.39224437 0.16630086 -0.2059472 0.22295159 0.06551314 -0.2180174 -0.111014314 -0.27983004 0.015247218 -0.055179745 -0.023898326 0.1535852 0.23902632 -0.06856983 0.052351512 0.045663416 0.0867697 -0.039683387 -0.006024933 0.07610609 0.030479195 -0.024935931 -0.060706664 0.020558374 -0.14033544 -0.15931885 0.10107024 -0.034085654 -0.19036719 0.006170162 0.15830652 0.04306994 0.09501852 -0.12299085 0.08538292 0.18375172 0.09117348 -0.036202703 0.09846843 0.2100493 0.13122189 -0.06368205 -0.042215668 -0.18316701 -0.063654244 0.010045497 0.063489415 -0.07018992 0.17078252 -0.10097679 0.06572479 0.03817561 -0.046846695 -0.15318413 -0.15978153 0.046193328 0.09301158 0.0064399373 -0.09863993 0.023501396 0.016563121 0.22598568 -0.17292346 0.02264373 -0.1921098 0.013995201 0.09965265 -0.06271796 -0.085203275 0.030246869 -0.014420177
21 -0.06414372 0.050896596 -0.0674228 0.15501593 -0.25312683 0.113326445 0.11817847 -0.11043867 0.21636176 0.030856224 -0.054987255 -0.11161778 -0.11008609 -0.34903198 0.14268325 -0.1609858 -0.18907401 0.003839182 -0.0023359007 0.03346049 0.02170814 -0.02895216 -0.08357391 -0.067022584 0.08824514 -0.1172041 0.22197498 0.10281305 -0.17411637 0.030574666 0.062791236 -0.32275525 0.079304785 -0.13404165 0.15151949 0.10203655 -0.13727339 -0.051119305 0.062339224 -0.27303004 -0.08567396 0.16411857 -0.07007719 0.05229936 -0.021465713 0.038561817 -0.084340736 -0.095309116 0.04000271 -0.16455728 0.14477336 0.110114954 0.03998205 -0.053023964 0.23177284 -0.02150976 -0.006742933 -0.3894931 0.1539112 -0.22710687 0.20548788 0.07498133 -0.19977288 -0.11529638 -0.18885262 -0.0006482703 -0.08700363 -0.00035744163 0.14014034 0.21316653 -0.057024006 0.04410628 0.04407794 0.04471524 -0.04272037 -0.03193931 0.09113893 0.051580265 0.015592191 -0.022320453 -0.004907808 -0.12200742 -0.196128 0.08154839 -0.033529397 -0.17594725 -0.011761756 0.14378235 0.020237217 0.139068 -0.11620861 0.078823686 0.16922641 0.087941036 -0.050353367 0.07087412 0.23329002 0.13842471 -0.031375665 -0.022268036 -0.18299519 -0.05560839 0.005031805 0.033293147 -0.088925995 0.19997725 -0.10570689 0.08172785 0.037077256 -0.053087387 -0.16126527 -0.168138 0.068243 0.06885946 0.012012026 -0.089506514 0.0037106432 -0.008335956 0.21293549 -0.16492324 0.05289529 -0.1682677 0.03512116 0.108861215 -0.063889965 -0.10125952 0.018155655 -0.0013547473
20 -0.06784511 0.057280336 -0.06845058 0.15814799 -0.23984186 0.1182818 0.11116005 -0.109900214 0.20281488 0.029673938 -0.06539866 -0.101291426 -0.10705648 -0.3290057 0.13199778 -0.1575046 -0.18388113 -0.0047473637 -0.008045596 0.029121827 0.016331565 -0.027677597 -0.075219385 -0.067831196 0.08024856 -0.11714765 0.21611716 0.10113837 -0.16075955 0.032610726 0.05279892 -0.3055474 0.08073955 -0.12536058 0.14100091 0.1024497 -0.13759002 -0.03853181 0.053148206 -0.27004823 -0.082417786 0.16265754 -0.06615128 0.061039716 -0.0244255 0.03873788 -0.0748524 -0.10087025 0.04570369 -0.15505028 0.14107448 0.110836215 0.03406146 -0.04921935 0.22309612 -0.013498435 -0.011546147 -0.3798991 0.1490957 -0.21369448 0.20859034 0.07257608 -0.20159218 -0.10736911 -0.20486523 0.0016226321 -0.08047742 -0.0068566073 0.14057189 0.21507585 -0.060319085 0.045150235 0.04156523 0.05110614 -0.04445813 -0.026196426 0.084739156 0.048313946 0.007555164 -0.02828296 -0.001491353 -0.12735042 -0.18532999 0.08532735 -0.03261318 -0.1771652 -0.003521981 0.14627624 0.025830511 0.13108669 -0.11366378 0.07745817 0.16850509 0.09118336 -0.05052397 0.07762976 0.2250068 0.13591944 -0.04273861 -0.027980275 -0.17703763 -0.051451966 0.00553789 0.04227545 -0.08724833 0.18867977 -0.105031006 0.07844631 0.03287336 -0.054334816 -0.15982288 -0.1619931 0.057861976 0.080403574 0.013743963 -0.08802803 0.0102102235 0.00013863643 0.21524566 -0.16689129 0.04633286 -0.17312348 0.027131045 0.10393576 -0.06081491 -0.097974785 0.019021492 -0.002715296
23 -0.06286032 0.045646153 -0.060783204 0.14576644 -0.24002145 0.11074423 0.11124428 -0.104943044 0.2025685 0.033977557 -0.057448402 -0.10173873 -0.10356361 -0.33060807 0.1409825 -0.1553381 -0.19048125 0.0038350408 0.0028499833 0.036129437 0.01598626 -0.029075084 -0.07612803 -0.06197351 0.0900918 -0.123500004 0.22182207 0.10519062 -0.16582523 0.030944295 0.05988834 -0.32572773 0.07756202 -0.13344938 0.15324776 0.11093513 -0.14131857 -0.050189927 0.06491936 -0.2866484 -0.09017662 0.17487645 -0.07342107 0.05357308 -0.027227066 0.038966794 -0.07466332 -0.09496299 0.03901448 -0.15935765 0.14384279 0.119985014 0.034483027 -0.05039719 0.23308629 -0.015406772 -0.013497548 -0.4044552 0.15414286 -0.2325163 0.20900482 0.07210247 -0.2017344 -0.11858923 -0.2037702 -0.005071563 -0.08314398 -0.0068341456 0.13907857 0.21884626 -0.063268 0.046710245 0.0442129 0.04538554 -0.038218368 -0.035266496 0.08883835 0.047326904 0.008079874 -0.020756364 -0.0032138177 -0.12429028 -0.19393156 0.08782588 -0.03628175 -0.18307759 -0.006125309 0.14844625 0.0232153 0.13736822 -0.11583295 0.07425361 0.17154926 0.09697867 -0.053695753 0.07482601 0.23307836 0.13670713 -0.036083993 -0.026137097 -0.1844897 -0.055580743 0.0056263935 0.03968926 -0.08839612 0.19431995 -0.10611345 0.076619454 0.041896403 -0.05734465 -0.16365854 -0.16613321 0.06413026 0.07317169 0.009675843 -0.089682594 0.0015442484 -0.0076497393 0.22233579 -0.16208605 0.05265825 -0.17769414 0.033336785 0.10479418 -0.07088098 -0.10606393 0.012824532 -0.0048251306
5 -0.066156134 0.04942291 -0.05745941 0.1505779 -0.22460751 0.10944887 0.10963192 -0.10576615 0.19188444 0.024882874 -0.07230033 -0.09625225 -0.098701425 -0.31231147 0.13415822 -0.15073311 -0.18372153 -0.0027766398 -0.0068978914 0.021136824 0.015222098 -0.02871107 -0.074104175 -0.07065751 0.07841722 -0.12745467 0.22043866 0.10106701 -0.16222039 0.036629323 0.050393187 -0.30623528 0.07916576 -0.13363294 0.13699311 0.104510196 -0.13497165 -0.03687892 0.053219516 -0.27790272 -0.08621493 0.16860685 -0.06764039 0.06188179 -0.027744511 0.032875687 -0.07039129 -0.10516128 0.039914828 -0.1542876 0.14002563 0.11296897 0.037719183 -0.058504093 0.22207157 -0.009831485 -0.021297878 -0.39129832 0.15474504 -0.22228865 0.21096036 0.067764945 -0.20741501 -0.11019099 -0.21659933 0.0026578223 -0.071039446 -0.011416347 0.13614967 0.21262053 -0.059662044 0.045517627 0.039036755 0.05977854 -0.03746113 -0.025376879 0.077798426 0.040521946 0.0030993621 -0.030306563 0.0021456846 -0.12347397 -0.17628668 0.086286336 -0.03021128 -0.18041027 -0.0034649533 0.1394285 0.025841506 0.1229262 -0.11829653 0.07601807 0.1701829 0.092005424 -0.047708586 0.07837066 0.2183267 0.13064241 -0.044893924 -0.03136103 -0.17440139 -0.05269772 0.006286854 0.04820824 -0.08721126 0.1859548 -0.10333072 0.071037054 0.036777426 -0.052309155 -0.15782121 -0.16203937 0.059626397 0.08016952 0.014168837 -0.09019539 0.00582878 0.002415618 0.21740192 -0.16448183 0.04133406 -0.17701975 0.029194813 0.10209311 -0.06198889 -0.09411439 0.01679868 -0.0088191265
22 -0.06451265 0.05255613 -0.06712096 0.15877004 -0.23708175 0.11964587 0.11779822 -0.103135504 0.20623474 0.03321615 -0.06266161 -0.10567806 -0.102629766 -0.33406445 0.13457309 -0.15653089 -0.18847834 -0.0044097356 -0.0077307983 0.02589308 0.02219438 -0.025101254 -0.07213263 -0.0699341 0.07989963 -0.120058954 0.22021621 0.10527939 -0.16428235 0.031218303 0.055924892 -0.3104669 0.07922756 -0.13456918 0.14796942 0.1080347 -0.1372801 -0.039770115 0.061977345 -0.28379196 -0.09271807 0.16793506 -0.06747402 0.05690464 -0.021878816 0.038170327 -0.078907795 -0.0969399 0.04806034 -0.16494872 0.14596914 0.11753942 0.036758903 -0.055848237 0.229073 -0.009887671 -0.013173664 -0.39631525 0.15975963 -0.22410783 0.21594006 0.07488162 -0.21225464 -0.11449162 -0.21652 0.0009096037 -0.08384386 -0.0041432143 0.13971806 0.2216293 -0.05559323 0.052427128 0.04211872 0.053485524 -0.039553624 -0.03223541 0.08780874 0.049491815 0.0026415142 -0.026931018 -0.0012604435 -0.12692943 -0.19433343 0.08674111 -0.037455406 -0.18768947 -0.009222969 0.15172964 0.030460807 0.13183281 -0.118647605 0.07860632 0.1746777 0.08941211 -0.052968822 0.074293956 0.22919434 0.13704653 -0.038023908 -0.021481823 -0.18426152 -0.053015452 0.0031664986 0.040176526 -0.0899011 0.18953346 -0.10685645 0.08235595 0.041650813 -0.057775747 -0.1656381 -0.16897 0.06391546 0.07788437 0.011677042 -0.085309 0.0088324705 -0.006899288 0.21462584 -0.16722152 0.04864568 -0.17445518 0.027796391 0.108886704 -0.063007414 -0.09613051 0.01888157 -0.0014403854
24 -0.06705747 0.050549254 -0.06782859 0.15909174 -0.25508645 0.11907754 0.11722645 -0.10895499 0.2173526 0.03312017 -0.062271487 -0.10391623 -0.112894356 -0.34655696 0.1486357 -0.16911206 -0.19327782 -0.0030832333 0.004601664 0.03407024 0.021339327 -0.026909173 -0.082692035 -0.064093 0.0870231 -0.12393772 0.22382656 0.09940501 -0.17068486 0.034450777 0.056667164 -0.31834877 0.080568716 -0.12924309 0.14954714 0.10210816 -0.14297462 -0.052225456 0.058662545 -0.28068748 -0.0923515 0.16679227 -0.069642454 0.05899123 -0.027040686 0.034455676 -0.08081615 -0.094519995 0.039906155 -0.15986955 0.14942458 0.11778708 0.04117315 -0.054152977 0.23072025 -0.018106986 -0.014377547 -0.4030344 0.15394287 -0.230574 0.21230085 0.0758467 -0.20280738 -0.114804916 -0.2028413 -0.0015857783 -0.07943175 -0.0032524003 0.13524628 0.21698499 -0.062128354 0.043682262 0.04301447 0.04818034 -0.04139558 -0.03609475 0.08888719 0.04667463 0.011047851 -0.023583448 -0.0057436517 -0.122707225 -0.19373614 0.08147884 -0.03283152 -0.17753303 -0.0060320734 0.14052331 0.028399741 0.1334473 -0.11953528 0.077539116 0.1645695 0.098561876 -0.055567477 0.076969475 0.22288033 0.13098599 -0.03731946 -0.022700172 -0.17777999 -0.054398537 0.008966722 0.03716788 -0.09297372 0.19615778 -0.10545185 0.08056601 0.035923135 -0.055596855 -0.15825531 -0.16476722 0.06373326 0.07481891 0.009155073 -0.08847733 0.006990291 -0.006388777 0.21644269 -0.15990084 0.05302484 -0.17167538 0.03570074 0.10026616 -0.06984637 -0.10429131 0.00889204 -0.00031284755
4 -0.065334685 0.05126629 -0.064849615 0.16058484 -0.24422343 0.116965264 0.12015095 -0.10808375 0.20756431 0.02627251 -0.069507405 -0.10397303 -0.10389808 -0.33378503 0.14261699 -0.16319819 -0.19010295 -0.0031320588 -0.0017582705 0.024024209 0.022331743 -0.02787578 -0.07609583 -0.06660291 0.08521758 -0.1221043 0.2271908 0.101329826 -0.1631284 0.033106487 0.049650263 -0.30996916 0.07802617 -0.13314512 0.14506294 0.10055083 -0.13919199 -0.03893588 0.06197254 -0.282952 -0.09138814 0.16380762 -0.06737645 0.06596544 -0.022782993 0.033332977 -0.07360366 -0.10036797 0.045549147 -0.1606879 0.14796646 0.120010704 0.036372148 -0.056528907 0.22593102 -0.0077493032 -0.018998247 -0.40006685 0.16178899 -0.22881861 0.21210273 0.07514366 -0.20764485 -0.117985934 -0.21905829 -0.0043072244 -0.07893743 -0.011036331 0.14202665 0.2270994 -0.06399474 0.048144445 0.045107104 0.054603674 -0.046961974 -0.033719517 0.088441946 0.04739879 -0.00025613545 -0.030648315 0.0028480787 -0.13022634 -0.1912896 0.090932116 -0.031382985 -0.18715663 -0.0018101902 0.1493788 0.03284688 0.13121757 -0.11980664 0.08113952 0.17574297 0.09776992 -0.05344352 0.08436792 0.2253994 0.13481434 -0.040843036 -0.025111597 -0.1809326 -0.053658355 0.010687997 0.043216348 -0.092517346 0.19080636 -0.109832466 0.08047388 0.036607575 -0.0538217 -0.15969191 -0.16042872 0.057092063 0.07580449 0.009492417 -0.08882823 0.006839284 0.0013342862 0.22409002 -0.16671248 0.04619319 -0.17784038 0.029830115 0.10339304 -0.066817164 -0.09598086 0.0156535 -0.0049921577
1 -0.0614923 0.048838343 -0.062476583 0.14740463 -0.232056 0.110990845 0.10967977 -0.105275474 0.19518462 0.026849689 -0.060545243 -0.10069306 -0.10327701 -0.3153572 0.13150302 -0.15061441 -0.18447329 -0.00096076843 -0.00010183269 0.030096855 0.020357091 -0.027925797 -0.073700696 -0.06606949 0.08569565 -0.11618192 0.21749038 0.09626103 -0.16299383 0.03500322 0.0541395 -0.304606 0.07557133 -0.13091192 0.14128818 0.104060344 -0.14223202 -0.043958906 0.062219582 -0.27324945 -0.08888515 0.16241063 -0.073242925 0.058633186 -0.024792645 0.03449863 -0.07598526 -0.10150897 0.046956956 -0.15865858 0.14895207 0.11532433 0.038343467 -0.056687932 0.2241066 -0.017026126 -0.015782176 -0.39760825 0.15393455 -0.22715928 0.21039598 0.069135375 -0.2054088 -0.11767571 -0.20800735 -0.0049794526 -0.0829641 -0.0096641295 0.1368743 0.2183798 -0.056501117 0.049481343 0.04205363 0.052839592 -0.044401698 -0.033788648 0.08911623 0.041662905 0.0062938705 -0.026451973 0.0020238517 -0.12670347 -0.18843944 0.080877066 -0.032782033 -0.17891344 -0.009989723 0.14200905 0.028962733 0.1329793 -0.11459106 0.073359765 0.16941655 0.092132434 -0.046564728 0.07198033 0.22275385 0.13630657 -0.0380318 -0.022259142 -0.17657107 -0.057357658 0.0014096517 0.041782677 -0.08776312 0.1903271 -0.10031124 0.074151404 0.036815982 -0.05167454 -0.1530163 -0.16086772 0.05669059 0.0689914 0.010908315 -0.0857162 0.0038472177 -0.0042638225 0.21010178 -0.16033438 0.044239853 -0.16780467 0.02718391 0.10061261 -0.065527715 -0.09641826 0.011008036 -0.0037798004
2 -0.06581702 0.05553542 -0.06533722 0.15628318 -0.21804622 0.11433422 0.11001625 -0.105150424 0.18945786 0.027023641 -0.0711591 -0.09767721 -0.09746311 -0.31410822 0.1291202 -0.14629832 -0.17969249 -0.007897605 -0.011202082 0.017828986 0.021575755 -0.029944342 -0.07051636 -0.07261436 0.07570522 -0.116413526 0.21407798 0.10318642 -0.15753362 0.039606445 0.05562636 -0.2995385 0.08190515 -0.13159145 0.13685873 0.0991716 -0.13724041 -0.027530598 0.055074967 -0.26904348 -0.08230028 0.16041814 -0.06814498 0.069806494 -0.025031703 0.035804115 -0.06710653 -0.10055851 0.04410694 -0.15310746 0.13826603 0.10695011 0.036712006 -0.055436034 0.21975864 0.0020634886 -0.019270953 -0.38637236 0.1585208 -0.21409646 0.21514744 0.068309866 -0.205877 -0.107617915 -0.22750735 0.0042210612 -0.06988417 -0.010685418 0.14301111 0.22389463 -0.061212264 0.049080204 0.039359614 0.06299202 -0.042175252 -0.02469148 0.077384286 0.043291803 -0.0034848035 -0.033716734 0.008166751 -0.13407834 -0.18184908 0.08898418 -0.032604434 -0.18447195 -0.0043848413 0.14515957 0.027823752 0.12197378 -0.12283513 0.07701113 0.17480092 0.08720074 -0.052152816 0.08074278 0.22312671 0.1349907 -0.048845552 -0.030347336 -0.18376517 -0.055761762 0.011080478 0.04942021 -0.08421503 0.1864456 -0.099059045 0.07371548 0.035684682 -0.05589585 -0.16107838 -0.16318403 0.05303848 0.079233095 0.013076922 -0.08682453 0.012868919 0.0025361166 0.22318706 -0.16773656 0.042018425 -0.17718185 0.028680887 0.1048428 -0.0688592 -0.094341494 0.02491043 -0.0037367644
0 -0.06678171 0.051263433 -0.06454167 0.14923672 -0.22559644 0.10919033 0.11007552 -0.103185184 0.19670139 0.032340795 -0.06363168 -0.09760705 -0.0982457 -0.315431 0.13618213 -0.1504894 -0.18723662 -0.005816875 -0.01002766 0.026404466 0.016884366 -0.0257535 -0.074345045 -0.066159144 0.0851354 -0.11813949 0.22075224 0.09887002 -0.16114186 0.032160025 0.054739196 -0.30984542 0.082160674 -0.13359833 0.1394363 0.10161871 -0.13552715 -0.03512993 0.058555353 -0.2777973 -0.0835515 0.1630172 -0.07019814 0.05914327 -0.025824878 0.036393326 -0.07233678 -0.10469361 0.04479534 -0.15597221 0.14370354 0.11147299 0.035226204 -0.054555316 0.22510646 -0.012937201 -0.02068384 -0.3821481 0.1572368 -0.22293748 0.21327922 0.074017935 -0.19863495 -0.108203545 -0.20959981 -0.0026426287 -0.0754653 -0.0093516605 0.13925554 0.21683872 -0.05733274 0.04866952 0.04516416 0.057439167 -0.040748682 -0.02641233 0.086711556 0.040271044 -4.9233633e-05 -0.033960767 -0.0039029957 -0.12932512 -0.18404885 0.08636903 -0.032077473 -0.18019463 -0.009581302 0.147571 0.023797464 0.12806568 -0.11710889 0.07757179 0.17098872 0.08742472 -0.049182516 0.07739367 0.22684282 0.13766964 -0.04608775 -0.02551788 -0.18225086 -0.059818044 0.007497227 0.04675724 -0.088240825 0.19187365 -0.10679123 0.07445476 0.03884301 -0.05060722 -0.16145085 -0.16429465 0.055194113 0.0816701 0.012318654 -0.09223377 0.011350588 0.00043703112 0.21928659 -0.165909 0.043428686 -0.17382608 0.027065802 0.1082933 -0.06082692 -0.09463056 0.016519895 -0.008262726
3 -0.06307813 0.05445133 -0.06420085 0.15050253 -0.227468 0.10856855 0.10634749 -0.10052019 0.1927002 0.024401342 -0.06131384 -0.09827956 -0.10087874 -0.31614718 0.13045438 -0.14678966 -0.18292995 0.00031809614 -0.005030034 0.024725258 0.02108218 -0.026734505 -0.07073845 -0.06359361 0.07657281 -0.11257609 0.20981804 0.099664226 -0.1618602 0.034512106 0.04897895 -0.2994085 0.07618604 -0.12739007 0.13450049 0.10009094 -0.13688749 -0.041831207 0.059289966 -0.2658356 -0.082242884 0.1552803 -0.06867324 0.05499713 -0.021932345 0.03879681 -0.07046384 -0.09492664 0.043208513 -0.1539051 0.1400275 0.11231221 0.034350067 -0.054278295 0.21311353 -0.014304469 -0.013311829 -0.3734498 0.14882995 -0.21471219 0.2050652 0.06761685 -0.19718792 -0.11050422 -0.20300502 -0.000357425 -0.075850636 -0.006676348 0.13579021 0.21127824 -0.054080375 0.044137582 0.03635169 0.056739077 -0.041973017 -0.028436147 0.08456264 0.045056198 0.0078918245 -0.031258576 0.0014170231 -0.11909782 -0.17610832 0.08045836 -0.034682833 -0.17398667 -0.001781919 0.14077754 0.029525941 0.119787194 -0.11473189 0.070672736 0.16659848 0.09029977 -0.04960121 0.07445034 0.2163246 0.13137355 -0.04269622 -0.026978059 -0.17471258 -0.05504837 0.00395912 0.043229543 -0.0794486 0.1835833 -0.102251455 0.0756649 0.035322282 -0.048383534 -0.1507808 -0.1586541 0.05895735 0.07237527 0.011412138 -0.08631222 0.004323926 -0.0025573114 0.21103878 -0.15815206 0.039422758 -0.16796404 0.028678773 0.09793645 -0.06195024 -0.089659594 0.016534314 -0.00798187
19 -0.06132289 0.055920202 -0.062396187 0.14855121 -0.22057942 0.11282106 0.10648786 -0.10424222 0.18725611 0.03035796 -0.0654099 -0.09806214 -0.09877422 -0.30899876 0.12729657 -0.149968 -0.1761623 -0.0061373995 -0.007604033 0.024516251 0.020834673 -0.024833776 -0.07241258 -0.06557314 0.077300735 -0.11272315 0.21098255 0.1018068 -0.15307151 0.03557428 0.05130439 -0.29590085 0.08079586 -0.13092175 0.13798946 0.10168058 -0.13269037 -0.039220255 0.056670163 -0.263354 -0.08464844 0.16189453 -0.066562995 0.06207697 -0.027980922 0.037731525 -0.07181873 -0.093701884 0.03898538 -0.15443513 0.14132953 0.1067871 0.03692191 -0.04866276 0.21371378 -0.008339552 -0.017317794 -0.37268606 0.15407783 -0.2175301 0.20657627 0.068898 -0.19697376 -0.1086657 -0.20963912 0.0044628256 -0.068836674 -0.00782602 0.13867599 0.2090403 -0.056345258 0.050074674 0.038605943 0.05814299 -0.039406195 -0.024407791 0.079655476 0.046326723 0.005410845 -0.029610675 0.000108224056 -0.121408775 -0.18072112 0.082047835 -0.034648225 -0.17579146 -0.0072964355 0.14346232 0.029022865 0.12446968 -0.11492901 0.07264986 0.16918907 0.08743007 -0.05056188 0.07758494 0.22043274 0.12606055 -0.042451795 -0.026767118 -0.17931734 -0.05771694 0.005082812 0.042462938 -0.08631504 0.18582585 -0.10374596 0.07363566 0.038781103 -0.054138806 -0.15449801 -0.15779038 0.058331203 0.078385904 0.009993043 -0.08986486 0.0056497403 -0.0017042716 0.21595037 -0.1612848 0.040005073 -0.17191334 0.024754202 0.097927645 -0.061815843 -0.0908771 0.021801934 -0.001681201
