30 128
10 0.3955306 0.21895304 0.067732684 -0.45489532 0.02306996 0.36308578 0.25513262 0.046999313 -0.13287884 0.06494243 0.12450947 -0.027529934 0.5133982 0.12013641 0.31664434 -0.20203322 0.23937117 -0.10484685 -0.02863973 0.058022548 -0.40951997 -0.3606259 0.052337382 0.2964259 0.46930873 -0.07490778 -0.06802951 0.07148394 -0.11790334 -0.14956392 0.07959266 0.17903404 -0.17035237 -0.18457913 0.10966311 -0.3645862 -0.08947132 0.4375855 0.07595426 -0.17331114 -0.4662863 0.10077754 0.55873775 -0.20808233 0.18466221 -0.027941052 -0.0908469 -0.112521395 -0.3292121 -0.23919386 0.39611316 -0.2489726 -0.027332617 -0.024257671 -0.16842479 -0.05563687 -0.46677676 0.1388021 0.0274186 0.41300926 0.21784176 -0.29762027 -0.24844727 -0.09920127 -0.5329241 -0.1299696 0.21337841 0.033369172 -0.059483565 0.042538628 0.31798187 -0.25669864 0.29890525 -0.19691987 -0.06825775 0.21301252 -0.13251083 0.18479504 -0.38073722 -0.14256823 0.17080164 0.032465592 -0.36815283 -0.15751643 0.36409265 -0.18803228 -0.21892574 -0.16414036 -0.17322627 0.22352853 -0.19371723 0.123362765 -0.14254244 0.022066237 0.34151715 -0.06567524 0.4133395 -0.18208204 0.19343613 0.22581744 -0.03371163 0.2184554 -0.39173126 0.10246363 -0.28524265 0.18223447 -0.08497135 0.0051944326 0.029994922 0.07034716 -0.3154998 -0.30355817 -0.21658535 0.037403848 -0.0977517 -0.14866841 0.40660957 0.20904878 -0.09828537 -0.13968974 0.16664782 -0.0055936356 0.28584605 0.10954105 -0.07929864 0.22138274 0.51049685 -0.20778358
9 0.38186103 0.24355684 0.026647488 -0.54522157 0.05182889 0.43909398 0.22425023 0.061602205 -0.15573488 0.025231795 0.11124221 -0.039301734 0.58226997 0.17452013 0.31550083 -0.25378305 0.20454238 -0.09749133 0.00028035222 0.03569313 -0.40553898 -0.3921277 0.041417327 0.2867287 0.5053728 -0.069700025 -0.018117314 0.03268841 -0.11657326 -0.122321874 0.07810682 0.16905002 -0.21075448 -0.15699539 0.11752732 -0.36640006 -0.009913759 0.41112402 0.066964455 -0.15176544 -0.5078204 0.025869602 0.60468745 -0.18568638 0.22171442 -0.057985857 -0.08471557 -0.06908088 -0.35084128 -0.28705466 0.42483863 -0.25289825 -0.026831351 -0.010667896 -0.12485225 -0.05737067 -0.5306741 0.08027669 0.038582526 0.45876998 0.20224908 -0.25703102 -0.28832135 -0.14203796 -0.56793815 -0.15508057 0.21983522 0.05269038 -0.05211092 0.043127213 0.32911474 -0.31250378 0.34745204 -0.22189379 -0.044762213 0.17395368 -0.15080754 0.13004163 -0.40156847 -0.21048246 0.20450321 0.051969446 -0.3379132 -0.19758204 0.4004447 -0.20507221 -0.22141571 -0.18592197 -0.15136433 0.22501433 -0.18320823 0.117372416 -0.1288528 0.016307393 0.3248932 -0.06269036 0.44724372 -0.2007785 0.23231573 0.27261883 0.0029220344 0.2325883 -0.34516487 0.08747376 -0.25025603 0.20441267 -0.088922866 0.025010353 0.04495348 0.019320054 -0.40499848 -0.27752283 -0.25848138 0.030616375 -0.031330694 -0.15554701 0.40083316 0.26970044 -0.14343812 -0.15645285 0.16927187 -0.022079574 0.3194238 0.13098285 -0.077551015 0.18034442 0.5600642 -0.21994115
8 0.39877713 0.24501441 0.04384195 -0.53062594 0.04231899 0.42397225 0.241799 0.05969939 -0.15371779 0.038734034 0.11674983 -0.035178956 0.56769186 0.14734472 0.31994683 -0.23633961 0.21955435 -0.104998745 -0.007554815 0.04310554 -0.4184589 -0.39095497 0.047452204 0.29111126 0.513575 -0.07487541 -0.041085616 0.036452312 -0.12485208 -0.14684406 0.07345911 0.17527516 -0.1920734 -0.17971474 0.12689939 -0.37683794 -0.030091722 0.41833293 0.08302875 -0.15636235 -0.5046889 0.043486234 0.58978724 -0.20078611 0.21061367 -0.05936735 -0.095441945 -0.0823523 -0.33642033 -0.28806955 0.43110612 -0.23819633 -0.02658173 -0.013529413 -0.13012204 -0.06498447 -0.5176298 0.09830246 0.04239588 0.4460193 0.21798381 -0.28239715 -0.28028175 -0.13621083 -0.5698574 -0.15937561 0.22947367 0.04457088 -0.05702683 0.037996348 0.3223962 -0.31288064 0.33135003 -0.21907735 -0.04803124 0.17547628 -0.15327118 0.14381178 -0.41226938 -0.20366123 0.20400287 0.047118917 -0.36534417 -0.19310457 0.3817789 -0.18999028 -0.23342669 -0.19161612 -0.16343585 0.22286396 -0.19480951 0.11945867 -0.1315437 0.018718582 0.33214417 -0.07032077 0.4645983 -0.21627708 0.21365382 0.26264542 0.0016172676 0.23915716 -0.37273753 0.088979825 -0.2689488 0.20965457 -0.088377595 0.015689826 0.041812643 0.029721333 -0.39047286 -0.2936169 -0.2551878 0.029283457 -0.061457705 -0.13764419 0.39467034 0.2730534 -0.13625988 -0.15041915 0.18138324 -0.007852488 0.3228693 0.1251972 -0.094265 0.20181268 0.561925 -0.21262333
11 0.33764586 0.20768115 0.066733815 -0.4014744 0.012705674 0.32465068 0.21401672 0.032438625 -0.11321389 0.05818005 0.106290825 -0.024688387 0.4716125 0.11690614 0.27876052 -0.1901876 0.20491436 -0.08040736 -0.009067134 0.051135518 -0.3584946 -0.32718074 0.032073986 0.25441623 0.41696882 -0.064718105 -0.043842696 0.06782914 -0.09448948 -0.1021571 0.07446171 0.15837492 -0.16413018 -0.14741327 0.094187826 -0.316474 -0.07690531 0.37706274 0.06872759 -0.14412062 -0.4153693 0.08598134 0.5001953 -0.16605745 0.17123303 -0.024581548 -0.07497179 -0.10062515 -0.31143454 -0.22348224 0.35239646 -0.24019685 -0.018405119 -0.028271837 -0.1381186 -0.054455716 -0.42506137 0.11934678 0.02339141 0.37421504 0.17457244 -0.24708845 -0.21073388 -0.08279414 -0.48496923 -0.11157834 0.19493674 0.035418916 -0.038566295 0.050211944 0.30609828 -0.21265776 0.29270923 -0.17209575 -0.05837248 0.210213 -0.122101285 0.17457692 -0.3383062 -0.133368 0.1464767 0.023455802 -0.31078437 -0.14450121 0.3444324 -0.17235404 -0.1867906 -0.14392568 -0.14007339 0.19482629 -0.17389897 0.11399545 -0.12911826 0.020897716 0.32299384 -0.054821633 0.36345577 -0.14272487 0.19382712 0.19307227 -0.022769915 0.18276171 -0.34290987 0.09449525 -0.23324499 0.14627415 -0.07374258 0.0056918077 0.0280223 0.07636788 -0.28806597 -0.2582567 -0.19770864 0.05273943 -0.069027424 -0.14753099 0.37643948 0.18346934 -0.098111495 -0.12729608 0.14083575 -0.017826764 0.26406115 0.09623907 -0.04476931 0.18734388 0.45104015 -0.19194852
12 0.34127858 0.2011683 0.048327614 -0.42815405 0.020639965 0.33548564 0.2000014 0.028304571 -0.110496044 0.057666525 0.11477708 -0.03167204 0.48258564 0.13307586 0.2745816 -0.1896308 0.19354847 -0.07248019 -0.008841154 0.050315738 -0.3512896 -0.3353873 0.036089912 0.2548448 0.41274053 -0.062124673 -0.035882078 0.064180136 -0.0991643 -0.09190707 0.067661345 0.16558748 -0.17171279 -0.13244961 0.09866938 -0.31286642 -0.058125176 0.3772942 0.057929106 -0.14529869 -0.4160611 0.07448147 0.5078731 -0.15981615 0.18326752 -0.031722255 -0.07658714 -0.09384304 -0.3167414 -0.22252782 0.35163003 -0.25058186 -0.011966347 -0.015752805 -0.13202736 -0.04903665 -0.43138027 0.11177616 0.013262539 0.3746171 0.16533452 -0.23910274 -0.21467721 -0.08563644 -0.48381576 -0.104942 0.1846592 0.037518475 -0.04152837 0.05667143 0.30743048 -0.20722733 0.2988057 -0.17143439 -0.055476535 0.20402117 -0.1167297 0.1643201 -0.338477 -0.14072703 0.15059346 0.032829974 -0.2941008 -0.14543773 0.35301208 -0.1819178 -0.18873325 -0.14408608 -0.13890073 0.19722678 -0.16718584 0.11640758 -0.12295715 0.02688421 0.31773195 -0.05604705 0.35435295 -0.1389554 0.19943443 0.20770033 -0.02721536 0.17742142 -0.331249 0.09660577 -0.21991946 0.14919399 -0.081195965 0.017464636 0.03211144 0.06628264 -0.30251223 -0.25438493 -0.19405393 0.043742456 -0.06120538 -0.15523571 0.38211945 0.18748204 -0.097389184 -0.12511924 0.13992783 -0.027751701 0.2581567 0.0956573 -0.047766436 0.17689754 0.4555878 -0.19021492
13 0.32646996 0.18435867 0.06711623 -0.36404458 0.009671695 0.28578144 0.19724396 0.009408677 -0.08678622 0.07456239 0.11099918 -0.021488074 0.4273811 0.09862218 0.2539547 -0.14902452 0.19727333 -0.06353814 -0.022646844 0.063011855 -0.33098528 -0.30260554 0.031972572 0.24706024 0.3653846 -0.060682192 -0.05003788 0.08316582 -0.08701299 -0.08963607 0.06234229 0.1666701 -0.1453 -0.13273351 0.089931175 -0.28703117 -0.096224375 0.37905008 0.060186163 -0.14632246 -0.37187594 0.11841914 0.46051338 -0.16046083 0.15997024 -0.015564378 -0.07186313 -0.114343435 -0.30203035 -0.1806969 0.30706462 -0.23838384 -0.010706247 -0.020706408 -0.14637825 -0.03756153 -0.37713483 0.13521698 0.0016926435 0.33356166 0.15560667 -0.24237189 -0.18424124 -0.052776404 -0.4419168 -0.08222749 0.16933763 0.03264471 -0.038518935 0.052053265 0.29285842 -0.15261945 0.26060045 -0.13813506 -0.06743079 0.22055408 -0.10537281 0.18441746 -0.31443158 -0.09936656 0.12722552 0.016056148 -0.2871654 -0.12275533 0.3203935 -0.16505414 -0.17036682 -0.12059358 -0.14589934 0.18585718 -0.1501577 0.11401204 -0.1311331 0.0247189 0.30873653 -0.047067218 0.31542826 -0.12586422 0.17177959 0.16623439 -0.046309873 0.15649714 -0.33153766 0.0987196 -0.21429326 0.13021283 -0.07451246 0.009400678 0.025512982 0.08779317 -0.23889588 -0.2509772 -0.16960618 0.050919354 -0.08505795 -0.14521545 0.37078184 0.14516807 -0.0676061 -0.11084577 0.12669663 -0.019309819 0.22870901 0.07746498 -0.043504376 0.18370137 0.40572894 -0.17258607
14 0.2922256 0.15786 0.06428946 -0.30090874 -0.0041968995 0.23471269 0.16297993 -0.011624397 -0.05618026 0.081651345 0.11064034 -0.02217082 0.3797508 0.091857105 0.2257049 -0.11672484 0.18135111 -0.034463987 -0.01761598 0.07302276 -0.30169272 -0.2768039 0.023793675 0.21952301 0.29866874 -0.04785634 -0.03878082 0.097496696 -0.07848297 -0.043227747 0.05304235 0.16689613 -0.13545129 -0.10342499 0.068740256 -0.23991357 -0.105211124 0.34833953 0.038999062 -0.1349868 -0.3257733 0.13349341 0.4147287 -0.12922074 0.15369438 -0.007386649 -0.060482316 -0.12426984 -0.29055995 -0.13884276 0.25422233 -0.26193562 -0.005631414 -0.027490932 -0.14913367 -0.03370573 -0.33184257 0.13978085 -0.02787058 0.28561914 0.12053486 -0.22126812 -0.14323968 -0.017354423 -0.39312944 -0.061388463 0.1390844 0.02047735 -0.024191696 0.06747767 0.29351714 -0.08509562 0.24721484 -0.12054171 -0.08024412 0.23608677 -0.084204435 0.20533119 -0.27132946 -0.06387979 0.09493374 0.003996977 -0.2503635 -0.08966789 0.30616033 -0.16992818 -0.14887233 -0.0961634 -0.1287134 0.17117898 -0.14103357 0.11580502 -0.120416425 0.03997436 0.3078517 -0.04083337 0.24859227 -0.073816374 0.17428882 0.13788205 -0.06271888 0.11542111 -0.30665627 0.10685034 -0.1830697 0.08816163 -0.08035678 0.017148968 0.015833525 0.11081479 -0.19716938 -0.22175711 -0.1306881 0.054165125 -0.08206552 -0.15435818 0.36875936 0.09539384 -0.043449655 -0.09384713 0.09620282 -0.040046643 0.19400054 0.06387609 -0.01643885 0.16510275 0.34089425 -0.16266046
1 -0.007379177 -0.14704943 -0.31535697 -0.4525245 0.22386335 0.3133659 -0.5079708 0.03252755 0.22027504 -0.0225278 -0.08811018 -0.20598054 0.17561117 0.3419395 -0.11480418 -0.18750127 -0.27511752 0.23763868 0.14338744 0.063850835 0.19336288 -0.044381574 -0.13401459 -0.047190864 -0.41650876 0.25523657 0.26631218 -0.007945893 0.13539363 0.47875422 0.12389763 -0.12264298 -0.32038376 0.31274232 -0.2966127 0.26605877 0.2555919 -0.10878314 -0.24944487 0.14671624 0.030841663 -0.28754315 0.166916 0.3141279 0.12990268 0.23788984 0.117075525 0.15608446 -0.27007645 0.21069811 -0.33813763 -0.45198688 -0.022065947 0.024485305 0.016879205 0.06765123 -0.14216505 -0.23823205 -0.18406399 -0.0054947985 -0.18052611 0.3461158 0.14721958 0.13234502 0.1574827 0.09607845 -0.30571103 0.016592061 0.117432594 0.2012095 0.19337331 0.29062396 0.2673811 0.04975702 -0.050603908 0.06169473 0.039204847 0.037225835 0.26159602 -0.022046145 -0.026510585 -0.04991166 0.5521615 0.010796324 0.2244696 -0.2548698 0.2448711 0.20008361 0.11818571 0.12697572 0.033516187 -0.029098013 0.048886895 0.05465589 0.035538282 0.14599462 -0.514314 0.42334667 0.3342584 0.08857458 0.037072133 -0.27840838 0.2965103 0.14428942 0.27311882 -0.22600956 -0.048715357 0.04712152 0.011948085 -0.003791598 -0.062299594 0.39869687 -0.043947212 0.05763127 0.43250462 -0.33511242 0.1558942 -0.16997556 -0.0478498 0.03163818 -0.288516 -0.3546321 -0.18735494 0.06482636 0.48103577 -0.2715198 -0.26697963 -0.12415295
15 0.29152295 0.16753578 0.08851048 -0.27827212 -0.018565858 0.21922052 0.18088795 -0.030948194 -0.06150121 0.08519346 0.110253066 -0.0063535236 0.36571124 0.07647745 0.22967136 -0.109555006 0.18671204 -0.039881438 -0.020766433 0.066522025 -0.2976262 -0.27631158 0.022554437 0.2192229 0.309634 -0.055943165 -0.046435993 0.11248652 -0.07668279 -0.04211481 0.053105406 0.16925839 -0.1269746 -0.09974578 0.08162161 -0.2411032 -0.12728554 0.36025771 0.05040183 -0.13958234 -0.32142493 0.15640858 0.39960453 -0.13085873 0.15093929 -0.005936889 -0.0633305 -0.13884692 -0.28510755 -0.1396846 0.26155424 -0.26164222 0.0035718183 -0.033105113 -0.14710334 -0.029283524 -0.31563938 0.15899639 -0.0319383 0.28378135 0.10992369 -0.22591618 -0.14195384 -0.015804632 -0.39910012 -0.055144362 0.14528888 0.02290119 -0.025588509 0.06673205 0.2962393 -0.071423694 0.2426813 -0.104318045 -0.07497503 0.25296158 -0.086082585 0.21724062 -0.28049472 -0.046989 0.08648188 0.0012310687 -0.26225132 -0.083180785 0.30854684 -0.16516227 -0.15231122 -0.095080845 -0.12797755 0.1658462 -0.13406996 0.11760481 -0.122844644 0.036713805 0.31829262 -0.039974447 0.26328012 -0.07923669 0.16622977 0.12587151 -0.06376961 0.116116665 -0.31683707 0.102430806 -0.18301494 0.09041475 -0.07366583 0.014620363 0.02010256 0.12482708 -0.19248343 -0.23692885 -0.1255788 0.06404318 -0.093610376 -0.15434352 0.36962676 0.082575694 -0.040684 -0.09980078 0.10140343 -0.032830674 0.19792324 0.056349926 -0.023873318 0.17224453 0.34209296 -0.16296683
16 0.3042558 0.10357934 0.10545777 -0.20414394 -0.017661858 0.15151136 0.1850425 -0.013410364 -0.04117932 0.109518126 0.09957386 -0.006900112 0.27384833 0.024295079 0.21460438 -0.058747407 0.20703806 -0.054487374 -0.054794393 0.10392446 -0.27130193 -0.21801238 0.030813435 0.22157943 0.22764294 -0.05356194 -0.0843067 0.14731227 -0.07033263 -0.09129264 0.059905883 0.14671822 -0.08879882 -0.12477217 0.04143211 -0.22641091 -0.20151295 0.3769439 0.062275555 -0.13792986 -0.255439 0.22133283 0.34391022 -0.14836083 0.08792941 0.037794977 -0.05768526 -0.16264294 -0.270269 -0.06455741 0.19538492 -0.23314627 -0.0071425606 -0.040702775 -0.18710236 -0.012275351 -0.24185577 0.18892658 -0.033616196 0.21566328 0.12408207 -0.23452401 -0.09148993 0.034901325 -0.32354426 -0.03391745 0.14023893 0.011863133 -0.022265656 0.053431362 0.26038036 -0.021815518 0.15526634 -0.0755982 -0.09416339 0.2501749 -0.060113307 0.23146695 -0.24289691 0.018490182 0.055683564 -0.023381444 -0.25041646 -0.04946197 0.22417669 -0.13387427 -0.13454533 -0.06891442 -0.1449959 0.16134837 -0.13625033 0.10176863 -0.13360763 0.036149625 0.2904784 -0.032277662 0.19735959 -0.061861545 0.107530735 0.07618731 -0.08364561 0.10609613 -0.3217781 0.10301795 -0.21578278 0.074415 -0.05255871 -0.01040183 0.004115193 0.134318 -0.08211732 -0.2270744 -0.08883197 0.07075055 -0.13359565 -0.1260108 0.33129978 0.021768246 0.0013937965 -0.06492958 0.08590567 -0.011595757 0.15737697 0.043629147 -0.025965938 0.19367167 0.2623215 -0.14435312
7 0.33809438 0.21493642 0.046029355 -0.43764296 0.024166903 0.34460497 0.19884983 0.019783435 -0.115292564 0.049540475 0.10964604 -0.030796748 0.48934734 0.13073517 0.27248755 -0.18852232 0.19401523 -0.07326337 -0.008538698 0.048195247 -0.3518407 -0.3397117 0.03258834 0.2497934 0.4237527 -0.06304361 -0.027890468 0.055758826 -0.09953479 -0.08957614 0.06497713 0.16565959 -0.16992913 -0.12932947 0.112127185 -0.3124606 -0.042664222 0.3792794 0.063290566 -0.1422062 -0.42390364 0.073417835 0.5093461 -0.16283238 0.1933045 -0.043296967 -0.07742711 -0.09634218 -0.31440094 -0.22966234 0.36236545 -0.2470105 -0.008140712 -0.008704795 -0.1254735 -0.044409096 -0.4355988 0.10952874 0.01012927 0.3836189 0.16325822 -0.24172951 -0.22794406 -0.08809083 -0.49185526 -0.11682665 0.18703827 0.038262077 -0.04298534 0.045762192 0.31090805 -0.2145614 0.3023213 -0.17242697 -0.05172409 0.19788498 -0.12626 0.15884593 -0.3511896 -0.14559247 0.16254966 0.033333674 -0.29925328 -0.14867218 0.35529092 -0.17764336 -0.1906268 -0.14877272 -0.1433298 0.19335963 -0.162011 0.11400773 -0.12127904 0.026611334 0.3148946 -0.054533184 0.37123287 -0.1529608 0.19809528 0.21057881 -0.02322768 0.18023722 -0.3305345 0.093538746 -0.21975735 0.15685886 -0.082749635 0.02091719 0.02815261 0.05444918 -0.31772372 -0.25201756 -0.20208235 0.039886698 -0.05932439 -0.1483793 0.38317782 0.19292974 -0.099367395 -0.1273434 0.14190215 -0.026336798 0.2640491 0.1009554 -0.060723912 0.17730615 0.46719295 -0.1908105
6 0.27343613 0.13820969 0.0008898277 -0.3805507 0.05244437 0.30400124 0.11397816 0.039204195 -0.07476412 0.038698122 0.079343356 -0.046235472 0.3918767 0.13135351 0.20678979 -0.16455902 0.13679783 -0.038918287 0.004034074 0.055359196 -0.2672786 -0.26243824 0.016699359 0.20346202 0.2798487 -0.020703128 -0.0063470546 0.043177575 -0.06638267 -0.049449917 0.061404634 0.11351498 -0.16446795 -0.09165082 0.04650766 -0.22263539 -0.025255093 0.29141152 0.022582414 -0.103531815 -0.33214718 0.037081923 0.41967073 -0.10672925 0.146767 -0.00071205344 -0.048381057 -0.05452241 -0.27279386 -0.14221664 0.23978755 -0.2344912 -0.020537214 -0.007894631 -0.11111178 -0.029717427 -0.35637194 0.06489677 -0.0037882498 0.29114267 0.12757565 -0.16201428 -0.16088867 -0.052636765 -0.35838875 -0.08725341 0.12451432 0.02964861 -0.027717704 0.05238227 0.24809177 -0.15200385 0.24468556 -0.13940719 -0.051588275 0.15196101 -0.08866349 0.12350097 -0.24550308 -0.11420018 0.12220433 0.018016849 -0.19055249 -0.113523506 0.28395075 -0.15641399 -0.1273997 -0.10206022 -0.10497479 0.16955565 -0.13294092 0.08681819 -0.08997102 0.025754148 0.23809716 -0.030972278 0.23709969 -0.08111257 0.18188733 0.17805782 -0.015724199 0.12699692 -0.23401794 0.08829528 -0.16317424 0.106431045 -0.06796551 0.018210473 0.027330536 0.03578756 -0.23775506 -0.16333179 -0.1635016 0.03294133 -0.00549374 -0.1413406 0.29912204 0.1375364 -0.080549814 -0.088400595 0.08407347 -0.045943126 0.18679363 0.08980144 -0.004167587 0.11906728 0.3358662 -0.1595977
3 -0.0318619 -0.13854454 -0.30477455 -0.40538555 0.18989506 0.2698665 -0.45848018 -0.004822538 0.21183364 -0.04019669 -0.04738888 -0.17860372 0.16240698 0.3075255 -0.10363027 -0.11845495 -0.25071344 0.26698792 0.12874016 0.072617784 0.14670347 -0.04649286 -0.11920461 -0.03810991 -0.39884397 0.2454908 0.25904447 -0.009932684 0.11539782 0.46193832 0.053067654 -0.06899252 -0.2906237 0.28510743 -0.25644812 0.24699865 0.24871515 -0.10389487 -0.25770244 0.10465197 0.026139714 -0.2411389 0.1464611 0.30993176 0.1597083 0.1718443 0.11383904 0.13632715 -0.19080432 0.21040052 -0.3060168 -0.42892638 -0.027223544 0.04648334 -0.007672818 0.06611609 -0.102649 -0.19627775 -0.2123527 -0.011131314 -0.14479087 0.26854917 0.13252582 0.116518475 0.16629751 0.08432549 -0.3271996 0.017293533 0.09183741 0.20790826 0.15110296 0.26789007 0.22322167 0.031781577 -0.06169305 0.03588693 0.061819278 0.027559817 0.25416702 -0.016449172 -0.04321916 -0.023284944 0.46903554 0.03779068 0.20797122 -0.24153005 0.18744425 0.1557944 0.10174134 0.10004566 0.059514202 0.018749345 0.05857718 0.08088878 0.022930501 0.110988215 -0.48741636 0.37959635 0.30711365 0.10930876 -0.010262398 -0.26300973 0.26228714 0.16761643 0.25306678 -0.21925153 -0.09113855 0.0824613 -0.0037086138 0.0076000257 -0.0677476 0.3430663 0.02802809 -0.00376742 0.36515343 -0.29324755 0.15165251 -0.1559859 -0.026791526 0.05074729 -0.2731006 -0.3200729 -0.20758753 0.068609886 0.43878698 -0.27436057 -0.24376231 -0.09244281
24 0.18234381 -0.36778146 -0.059213508 0.05353797 0.06939406 -0.13324445 -0.2850707 -0.036060017 0.3684646 0.19839175 0.008416365 -0.12809974 -0.18021913 -0.0063240207 -0.037425213 0.21540673 0.0162718 0.23201364 -0.09709303 0.3289142 0.013627736 0.08215415 -0.0710287 0.111160144 -0.6698307 0.2170437 -0.0462391 0.26401263 0.02157944 0.22444686 0.043459143 -0.016057912 -0.1326053 0.03743956 -0.38587064 0.2675966 -0.34589207 0.2073146 -0.23873617 -0.026207788 0.17552857 0.28416422 -0.0122839045 0.14533581 -0.06454762 0.4201778 0.09468187 -0.13315636 -0.17686448 0.5969886 -0.5673615 -0.5205571 -0.05839525 -0.08772917 -0.37264717 0.111055724 0.20064723 0.16405283 -0.3114013 -0.30482316 -0.011658706 -0.060580377 0.4092874 0.4092532 0.34559754 0.20044489 -0.38551432 -0.11319285 0.028720379 0.23816758 0.10634759 0.5729809 -0.14229092 0.15245861 -0.29982498 0.25204226 0.20608431 0.35450938 0.3402941 0.42601174 -0.28493232 -0.17966823 0.26381478 0.30846128 -0.030663637 -0.15844499 0.10219419 0.26847547 -0.07601398 0.17724311 -0.02716445 0.14177161 -0.041197825 0.14063387 0.1555018 0.08758611 -0.7429829 0.46398926 0.06808269 -0.1332222 -0.21953578 -0.307977 -0.029423261 0.25495937 -0.024135904 -0.35033065 -0.058745205 -0.004815268 -0.06677827 0.2618041 0.45728478 0.15822513 0.30478957 -0.0061005047 -0.044925693 -0.21232206 0.1829157 -0.5094901 0.27022925 0.19821465 -0.33854562 -0.2330579 -0.40102023 -0.025636848 0.43272254 -0.032087833 -0.5174883 -0.056233395
2 0.020662006 -0.16377936 -0.26290983 -0.3604194 0.18636999 0.23410141 -0.43278125 0.004964863 0.22998103 0.005491193 -0.044222094 -0.17570423 0.1310599 0.27360156 -0.081641674 -0.10084005 -0.20460838 0.2413342 0.09640235 0.104281984 0.1262932 -0.037522778 -0.11163035 -0.01154879 -0.42269632 0.23768398 0.20404063 0.032231163 0.10087192 0.41659132 0.078233354 -0.077812 -0.27024338 0.24582104 -0.27780867 0.2367648 0.15306388 -0.041731197 -0.2402306 0.09762176 0.035483178 -0.17184798 0.1531551 0.26885176 0.112346925 0.23038657 0.10382605 0.09814327 -0.23094463 0.25790447 -0.33256605 -0.44433635 -0.027456526 0.017484657 -0.057377245 0.068605326 -0.09328493 -0.1520238 -0.20224492 -0.033966854 -0.13266945 0.23770036 0.16548876 0.16591382 0.16742484 0.10075765 -0.30542836 -0.002279005 0.08935199 0.20698702 0.17006801 0.31050014 0.19372615 0.05064736 -0.09202715 0.0871788 0.06884917 0.082115024 0.2435269 0.046178672 -0.063745745 -0.05248283 0.45096204 0.06200042 0.18641913 -0.23396482 0.1876871 0.18383186 0.07257281 0.12702152 0.027493108 0.020615885 0.028665287 0.07930979 0.059172943 0.117416054 -0.506992 0.39285415 0.2801018 0.07058445 -0.022936516 -0.25610957 0.20973955 0.17232943 0.20484495 -0.22970344 -0.069711454 0.053481624 -0.0081475 0.038038462 0.0059922626 0.32179886 0.030276157 0.024230994 0.31889793 -0.29568815 0.16956338 -0.20316198 0.0024668695 0.05501397 -0.27590823 -0.3143464 -0.20866552 0.059336703 0.43874708 -0.22343424 -0.27068904 -0.10193659
23 0.20258684 -0.46698898 -0.14407185 -0.0304019 0.19064747 -0.06912365 -0.40856302 0.055703804 0.41638246 0.2124768 -0.041318346 -0.19849838 -0.19811626 0.06827375 -0.09203569 0.14153972 -0.03650107 0.25203088 -0.06506346 0.37397742 0.119029425 0.118254766 -0.10540955 0.10768879 -0.83523417 0.28567144 -0.0020023175 0.27941704 0.06783756 0.26531073 0.13635634 -0.111850515 -0.19169302 0.10933337 -0.50040334 0.3271699 -0.325222 0.18533337 -0.2694685 0.030186713 0.23080333 0.23053335 0.032602288 0.19711412 -0.13776958 0.54203826 0.1375988 -0.09443368 -0.2881325 0.70719445 -0.7033901 -0.6104137 -0.10405748 -0.09102039 -0.40649262 0.15449895 0.1638005 0.08811287 -0.31537914 -0.31566963 -0.03478901 0.079676785 0.4600191 0.48150134 0.45506546 0.24078746 -0.41178745 -0.094815776 0.0648591 0.2610969 0.13935602 0.65190804 -0.12734364 0.1811109 -0.31093726 0.25560877 0.20984843 0.35041332 0.41593462 0.44599617 -0.28090924 -0.21368729 0.44962293 0.309547 -0.04540935 -0.18228331 0.2197738 0.35211968 -0.06627602 0.20491475 -0.049116034 0.074373014 -0.031425733 0.154378 0.117764644 0.15197816 -0.9060735 0.5636345 0.12941228 -0.1441078 -0.18707006 -0.3563165 0.0416312 0.27760467 0.00045141455 -0.3906532 -0.01378458 -0.035585374 -0.06683895 0.22460635 0.5360377 0.3036542 0.2462193 0.057771776 0.09800366 -0.28855464 0.18486023 -0.56556416 0.25996086 0.2207952 -0.41469806 -0.3062178 -0.42988214 -0.011470597 0.52545786 -0.0693601 -0.63002 -0.07635866
17 0.2824087 0.117033616 0.09602826 -0.19869706 -0.027979366 0.14374071 0.1676183 -0.031795133 -0.028433258 0.10337289 0.10609085 -0.0056177056 0.2765703 0.040688265 0.19754706 -0.050021466 0.19086547 -0.029488362 -0.040562768 0.09447494 -0.26235428 -0.222744 0.025893712 0.21045713 0.22493483 -0.04841589 -0.067811504 0.1373401 -0.06438394 -0.053185374 0.043391112 0.15693864 -0.09055028 -0.109702185 0.053897478 -0.2036253 -0.17939544 0.34818894 0.04280473 -0.12992343 -0.24711291 0.20203309 0.32793313 -0.1334004 0.11089475 0.018252367 -0.055038393 -0.14901552 -0.25895092 -0.07155439 0.19193003 -0.24148065 0.0069992533 -0.03328376 -0.16577548 -0.014858501 -0.2325225 0.18115601 -0.04148015 0.21180815 0.101590395 -0.2205628 -0.08532755 0.028340356 -0.3208038 -0.023752103 0.11873051 0.0075265067 -0.016708711 0.0602853 0.263172 -0.010141718 0.17042944 -0.07164339 -0.09072249 0.24692997 -0.052450247 0.22213025 -0.228464 0.00896421 0.047723684 -0.0127833355 -0.2326374 -0.048545387 0.23422755 -0.13831124 -0.13753313 -0.06466184 -0.13737255 0.15518367 -0.123644926 0.11485716 -0.12611675 0.04002537 0.2844105 -0.031002177 0.1876945 -0.05303397 0.11669204 0.07523763 -0.08626493 0.08814671 -0.30426794 0.10975133 -0.18100832 0.06847655 -0.06700031 0.008446409 0.0032187453 0.13836293 -0.09735821 -0.21529417 -0.08226786 0.056371488 -0.122608416 -0.1328509 0.33622172 0.019598562 -0.0015436225 -0.063045375 0.0766153 -0.027286738 0.15024947 0.040883716 -0.009664714 0.17137651 0.25522968 -0.13343233
25 0.13017976 -0.2646264 -0.051438186 0.022356335 0.036959633 -0.091476955 -0.22373301 -0.05779036 0.28476647 0.15585436 0.009077486 -0.08716944 -0.11644425 0.0120106675 -0.025855482 0.16575216 0.00899107 0.19990447 -0.07232538 0.24529038 -0.0035442442 0.048086178 -0.058064714 0.08811848 -0.49331987 0.18072997 -0.019934753 0.20346087 0.017634807 0.20581296 0.028148228 0.007439249 -0.11442031 0.042600133 -0.28689876 0.21066217 -0.2532053 0.1681876 -0.19091947 -0.029829025 0.12211865 0.21388035 0.0033195203 0.11998901 -0.016529458 0.3035543 0.07290121 -0.10814306 -0.13974363 0.44137993 -0.4269438 -0.42932203 -0.033266686 -0.066879876 -0.2769989 0.08042363 0.1476818 0.12754914 -0.25948822 -0.22475155 -0.026023215 -0.055633496 0.3088421 0.30486485 0.24163982 0.15203547 -0.31289095 -0.08418068 0.031183142 0.19715807 0.10183303 0.44481865 -0.086248025 0.10475079 -0.23860627 0.20505862 0.15272279 0.2880614 0.26021028 0.31786618 -0.21906872 -0.12589133 0.20022464 0.2338823 0.003200206 -0.14183345 0.06313272 0.19929938 -0.05428941 0.13990329 -0.021117166 0.12133294 -0.027903916 0.10864928 0.14145942 0.059434548 -0.5737236 0.36929032 0.07064663 -0.09673342 -0.17814636 -0.2513876 -0.023036988 0.20291544 -0.0013222835 -0.27719775 -0.06766041 0.014636594 -0.041022442 0.21635649 0.31657577 0.111453556 0.24390537 -0.0137568265 -0.036679298 -0.18613301 0.16366988 -0.39574543 0.20392361 0.14318052 -0.26094443 -0.2005162 -0.31396765 -0.019453103 0.3466386 -0.033694275 -0.3942048 -0.06193435
22 0.24620593 -0.52873236 -0.15550148 -0.051202822 0.26915467 -0.040617235 -0.43592086 0.14140016 0.3996269 0.23374689 -0.062168945 -0.22711769 -0.23368146 0.08228861 -0.11916636 0.09034315 -0.025667803 0.22884212 -0.07734371 0.4165547 0.1691878 0.14927574 -0.107325144 0.1260499 -0.88948965 0.29575756 -0.0059271995 0.3064143 0.076968156 0.18388969 0.2217951 -0.17179087 -0.19633009 0.10327476 -0.54575497 0.31299263 -0.36015433 0.23441537 -0.23519439 0.031227944 0.24986644 0.26235262 0.09849403 0.1624424 -0.22943547 0.61380285 0.16458508 -0.084448375 -0.3890294 0.76323396 -0.74568105 -0.6417957 -0.13992523 -0.1071331 -0.4656006 0.17620252 0.10566562 0.059538204 -0.28736433 -0.31258345 -0.015753845 0.14393082 0.45403233 0.5377153 0.48734576 0.24095991 -0.34380183 -0.06923072 0.07815254 0.25245017 0.16420592 0.6658352 -0.13478014 0.17982635 -0.30921456 0.25949153 0.18293425 0.35942137 0.41079602 0.45802185 -0.25603947 -0.23721264 0.52276814 0.28651989 -0.08801992 -0.18385665 0.2673279 0.37916246 -0.08373612 0.24128148 -0.10226956 0.0034163657 -0.048804402 0.16146354 0.113517225 0.1738067 -0.93930453 0.57567304 0.13692716 -0.14438173 -0.17355445 -0.3196786 0.038829464 0.27649677 -0.045200836 -0.37081346 0.04916082 -0.07048971 -0.06906761 0.19150005 0.6040852 0.33966574 0.172372 0.10838797 0.15191148 -0.30260676 0.18758991 -0.5904996 0.2686178 0.22379003 -0.42783427 -0.30237642 -0.39295682 -0.0045805103 0.50851446 -0.032075502 -0.64860445 -0.094108075
0 0.061358877 -0.15369949 -0.18617025 -0.2643441 0.1556561 0.17228273 -0.32624578 0.026389461 0.17527136 0.03667744 -0.04134681 -0.14318594 0.084779516 0.1973907 -0.060538754 -0.082345046 -0.13725345 0.17575064 0.061281804 0.11339741 0.10189957 -0.029090548 -0.08943197 0.019133916 -0.34382904 0.18539746 0.142269 0.055447813 0.08083842 0.28741997 0.09711827 -0.06554724 -0.21145847 0.17316838 -0.23577233 0.1710193 0.06339634 0.017517135 -0.17126653 0.06580588 0.03714245 -0.08819427 0.14201383 0.18750624 0.056030173 0.21599692 0.083224595 0.05278248 -0.22433038 0.23035519 -0.28112146 -0.3723035 -0.036153924 -0.005255116 -0.082937755 0.06440732 -0.079151034 -0.09292868 -0.1604708 -0.033689402 -0.09082876 0.18101694 0.14259401 0.15920135 0.13469826 0.08812517 -0.21389921 0.0016004468 0.071665406 0.15668005 0.148673 0.2624832 0.1365578 0.045561608 -0.089094415 0.09413685 0.04379949 0.10016382 0.18294854 0.06814284 -0.054279268 -0.06571471 0.35178584 0.049323805 0.1325591 -0.18486343 0.14911559 0.1555754 0.032079525 0.11690362 -0.0068679336 -0.00020160695 0.013442582 0.06668715 0.061733417 0.103457764 -0.40540588 0.31256074 0.21721382 0.040641993 -0.02550459 -0.19545932 0.13586769 0.13457586 0.12075941 -0.17067389 -0.037083346 0.019852765 -0.00938548 0.04751557 0.050550457 0.24488686 0.004832057 0.03901772 0.2358297 -0.24013665 0.14925903 -0.18687229 0.016148927 0.050414592 -0.22106864 -0.23995495 -0.14832407 0.04525988 0.335522 -0.14108503 -0.22286604 -0.09325994
4 -0.0006098872 -0.110108085 -0.24825454 -0.34661856 0.15486746 0.2311496 -0.3688716 -0.013813276 0.18817359 -0.016993478 -0.021765415 -0.1549206 0.16595925 0.25991586 -0.06141791 -0.09404342 -0.18471576 0.23495026 0.10109493 0.081446104 0.09041501 -0.06151075 -0.106068194 -0.0068773623 -0.32712883 0.20435953 0.21293648 0.006087729 0.08147682 0.39495364 0.03703162 -0.030726235 -0.2517956 0.23080689 -0.21074963 0.18856013 0.18221445 -0.049330786 -0.22244076 0.07049912 -0.005848799 -0.17691699 0.15523358 0.251926 0.15393142 0.14753342 0.0922099 0.09608803 -0.18892434 0.18599854 -0.25351316 -0.4014177 -0.022107944 0.032101166 -0.030162849 0.04886401 -0.10221501 -0.13478948 -0.19878191 0.0023529083 -0.11131368 0.19357866 0.11557929 0.116315804 0.1155434 0.077426486 -0.2723228 0.01448722 0.07629263 0.192177 0.14934167 0.24338686 0.19858874 0.020020675 -0.07641727 0.06624512 0.046887267 0.05151577 0.20297857 -0.0012453296 -0.038490687 -0.024216676 0.37617195 0.035572726 0.20377074 -0.218872 0.13785529 0.13310339 0.07349756 0.10433372 0.040996112 0.040601704 0.030990561 0.076978795 0.059479754 0.08510743 -0.41199777 0.32687253 0.27465394 0.09627317 -0.027159108 -0.22158635 0.19178689 0.16303504 0.20186204 -0.19209145 -0.09236859 0.07192427 -0.0039299745 0.036953963 -0.056310996 0.26861653 0.033640914 -0.0044782776 0.28972918 -0.26072302 0.17133242 -0.13875853 -0.01735732 0.047947936 -0.22932443 -0.28516233 -0.16962518 0.06420239 0.3823081 -0.21429764 -0.19371323 -0.08986497
5 0.097788006 -0.0044756206 -0.13298845 -0.33176246 0.10676033 0.23753615 -0.15279883 0.0076427464 0.06435559 0.00013278757 0.016492331 -0.09872472 0.2358403 0.18357976 0.03944691 -0.11900762 -0.051345844 0.10611227 0.052710913 0.057435423 -0.05245518 -0.12693913 -0.04547745 0.0681018 -0.057979796 0.09469954 0.112039275 0.020527354 0.019861529 0.1860644 0.04511134 0.021105682 -0.1970135 0.08564617 -0.08936846 0.008097884 0.09648788 0.0859998 -0.09830715 0.00084894197 -0.12640715 -0.08167896 0.24461992 0.092019245 0.12987764 0.07309509 0.028934548 0.03210758 -0.19976938 0.037281197 -0.03589993 -0.29003167 -0.021735808 0.017465973 -0.057914287 0.014495931 -0.19051044 -0.054139018 -0.1015867 0.12017332 -0.012189529 0.042679917 -0.005982517 0.033448353 -0.07295513 0.0015004114 -0.09673541 0.02302797 0.031090476 0.11870769 0.17006892 0.06129959 0.19270383 -0.038406968 -0.049863514 0.08336232 -0.012904465 0.065363236 0.007145174 -0.05299814 0.027001735 -0.0007429733 0.12712581 -0.023528203 0.21344233 -0.1758443 0.023331448 0.025207683 -0.0018864216 0.11865025 -0.03125265 0.04749053 -0.014792971 0.051149674 0.11956942 0.033174127 -0.119826674 0.13103662 0.2127954 0.123495385 -0.014302866 -0.06780881 0.0079383515 0.11716295 0.037424855 -0.0515034 -0.07136464 0.04279742 0.008483915 0.022986181 -0.12599398 0.077781506 -0.053548418 0.010174956 0.15121427 -0.18490611 0.19600774 -0.01247553 -0.0445849 -0.012128656 -0.08302244 -0.16297576 -0.015847325 0.06476515 0.18525663 -0.06880205 0.029228024 -0.10898596
21 0.3727419 -0.66193956 -0.23323116 -0.17095909 0.40772542 0.049421553 -0.55542386 0.24444269 0.4576114 0.30348885 -0.07219986 -0.3237444 -0.22033443 0.16853842 -0.14322431 0.029598624 -0.029951194 0.26215088 -0.081987105 0.5391052 0.2203242 0.1478345 -0.14181262 0.19525197 -1.0897846 0.37052083 0.0340194 0.38229188 0.103814095 0.19822584 0.34342948 -0.24343328 -0.30306807 0.13877024 -0.70540476 0.33807924 -0.44202623 0.35073903 -0.27025977 0.0474036 0.265861 0.30844465 0.24815853 0.17763738 -0.3030747 0.79466164 0.21788776 -0.085109524 -0.6083427 0.9399211 -0.91278034 -0.86412024 -0.20001824 -0.12507787 -0.61066985 0.21727717 0.0074420813 0.039976105 -0.35162583 -0.31385067 -0.0070086946 0.23029137 0.52100307 0.6873045 0.56145537 0.29221293 -0.36136633 -0.046188228 0.121614404 0.33451542 0.27166614 0.8009339 -0.10979519 0.20311278 -0.3824244 0.33668137 0.17512104 0.463957 0.45867237 0.52323055 -0.2509658 -0.28745228 0.70088404 0.29900804 -0.068278916 -0.26083806 0.35368037 0.46967727 -0.1191371 0.35033515 -0.17561007 -0.03555391 -0.08789141 0.20319395 0.17217465 0.22721864 -1.1506195 0.7287059 0.23951407 -0.12939924 -0.19159275 -0.35305306 0.022097481 0.36039534 -0.08940285 -0.42295668 0.10046515 -0.10976371 -0.072477914 0.20962222 0.72280365 0.44494945 0.10937695 0.18812016 0.27905264 -0.4143969 0.28536606 -0.70166075 0.3127917 0.27258202 -0.5378146 -0.39160943 -0.41578594 0.014395046 0.6294363 -0.012372253 -0.7496477 -0.1670175
18 0.2840624 0.09232911 0.07948569 -0.220391 -0.0036559706 0.15144145 0.12808871 -0.027349502 -0.009026907 0.10524758 0.09968938 -0.01989869 0.28174955 0.054949082 0.18966484 -0.053959846 0.17872122 -0.014539557 -0.04381055 0.11219558 -0.25044808 -0.21240199 0.011510126 0.20792057 0.17696826 -0.02363717 -0.050778758 0.14382176 -0.05678138 -0.027192557 0.05618739 0.14766705 -0.1081401 -0.08171069 0.02245821 -0.1807666 -0.16822955 0.34736928 0.02964255 -0.12419477 -0.23224695 0.19751447 0.33243915 -0.106476374 0.10820309 0.043157764 -0.04844535 -0.14469716 -0.27741382 -0.034585636 0.15385433 -0.2804304 0.0007755928 -0.03575088 -0.17812318 -0.004891882 -0.23028341 0.16958062 -0.05996557 0.19290751 0.09093958 -0.20344453 -0.06413821 0.049796883 -0.28960672 -0.014920202 0.088668585 0.01201188 -0.010742961 0.08102891 0.2723565 0.018413248 0.17370258 -0.065408014 -0.09956899 0.24858579 -0.047874592 0.23310646 -0.20539087 0.018653594 0.042940706 -0.017914271 -0.19618127 -0.036206562 0.24434918 -0.1505059 -0.1169071 -0.04973282 -0.12958002 0.1586016 -0.11782605 0.110133514 -0.12124402 0.04537642 0.28772902 -0.019388974 0.13677251 -0.018580414 0.1393079 0.07478589 -0.092542514 0.068025455 -0.28349313 0.12312389 -0.17596805 0.049440417 -0.06742295 0.0077430513 0.0024460258 0.1408394 -0.081908494 -0.1852854 -0.07391665 0.06259826 -0.09880602 -0.15164775 0.34364417 -0.0012816674 0.0071933167 -0.055267286 0.053253014 -0.053330183 0.12674655 0.046238005 0.023037538 0.15689917 0.22504745 -0.13705425
26 0.15274976 -0.15865757 -0.023210468 -0.038518496 0.020812297 -0.03509416 -0.14686544 -0.064959906 0.21078399 0.13779384 0.027910199 -0.061879322 -0.024705207 0.023755975 0.025020575 0.10924786 0.036405478 0.14632241 -0.062455658 0.19988021 -0.05670171 -0.016616113 -0.03920468 0.10494611 -0.32109594 0.13307936 -0.022737617 0.18246005 0.0035294641 0.16482705 0.035627637 0.040527094 -0.11058888 0.02851175 -0.19404636 0.12245388 -0.20799387 0.19215842 -0.13002492 -0.047899473 0.046623785 0.19200067 0.07161601 0.074207984 0.0167327 0.22366513 0.038582597 -0.10562588 -0.15864858 0.31428424 -0.27765387 -0.37388048 -0.010307662 -0.045880537 -0.2299057 0.05961349 0.0664819 0.121018425 -0.20960884 -0.12587921 -0.01569865 -0.07933586 0.21182053 0.22542986 0.11359779 0.10587101 -0.20980686 -0.058923893 0.025933469 0.1558802 0.13857718 0.339095 -0.022064306 0.06514677 -0.19391234 0.20236984 0.09587893 0.26248187 0.14336403 0.23686285 -0.15506472 -0.09801244 0.11252362 0.1576454 0.06631526 -0.14410383 0.02389007 0.13338424 -0.055516604 0.12798867 -0.03864026 0.105615884 -0.04802259 0.08492673 0.16560468 0.03855951 -0.39120752 0.27117345 0.08336321 -0.05535682 -0.15337913 -0.17293681 -0.066102535 0.17912655 -0.022359958 -0.19035 -0.068142205 0.015107869 -0.025173262 0.18912643 0.20942461 0.040439542 0.1640637 0.0051393094 -0.048979517 -0.17619018 0.19987424 -0.29242054 0.14927617 0.090075545 -0.17567192 -0.161714 -0.20391664 -0.007587936 0.26449123 -0.0040328302 -0.24161394 -0.08051023
27 0.21937494 -0.02411303 0.01801751 -0.15716387 0.023536725 0.08734176 -0.015297691 -0.034255426 0.08119938 0.10891468 0.056923196 -0.047973957 0.14806134 0.057219397 0.10782727 0.005344279 0.096710145 0.06110689 -0.04125759 0.14694993 -0.14719495 -0.122332335 -0.0151355425 0.15384695 -0.054819655 0.05733493 -0.018580219 0.14999393 -0.02649505 0.06615034 0.057395086 0.0879963 -0.11753311 -0.018490488 -0.07728292 -0.037606627 -0.16633287 0.25960338 -0.050237574 -0.07380717 -0.11019631 0.17118713 0.22152703 -0.01891229 0.06823533 0.123533554 0.0013887222 -0.1123805 -0.22857022 0.11953018 -0.04491817 -0.32518056 -0.0043601105 -0.037766173 -0.18760149 0.027498024 -0.11311933 0.11899107 -0.12866783 0.049295064 0.035877265 -0.116897784 0.052323192 0.12313776 -0.101862445 0.039857667 -0.04570642 -0.017544588 0.010573353 0.11683793 0.20927069 0.15904388 0.09431556 -0.0064398125 -0.13648018 0.21843076 0.015098383 0.22348306 -0.037949465 0.10548097 -0.040346168 -0.046284914 -0.023508636 0.04495231 0.16276293 -0.15285586 -0.034978826 0.036643945 -0.08351992 0.15135252 -0.075625494 0.097172104 -0.07983701 0.06395927 0.2181616 0.008783529 -0.11448177 0.11565448 0.12625195 0.021734102 -0.10071153 -0.040823624 -0.16169758 0.1439581 -0.08910993 -0.059471346 -0.05568913 0.01112766 -0.001537184 0.14193173 0.04076036 -0.06457055 0.020641632 0.04062269 -0.048279185 -0.16582735 0.27170035 -0.13005958 0.06653061 0.008170993 -0.060585856 -0.10849541 -0.024827788 0.029668922 0.13241537 0.06588667 0.0073017287 -0.11154866
28 0.22964104 -0.0051291506 0.016568637 -0.19745108 0.039298 0.12438664 0.013024707 0.0006583909 0.048924487 0.10109625 0.057336397 -0.049180232 0.18501087 0.069459006 0.117879875 -0.04188114 0.1029093 0.02312244 -0.026330916 0.12762338 -0.14325194 -0.13545987 -0.008246106 0.15675388 0.0021595072 0.033325065 -0.019907415 0.13571271 -0.023511428 0.025953548 0.06971164 0.07392373 -0.121044055 -0.027724182 -0.06326316 -0.08355199 -0.14546676 0.26278114 -0.01858242 -0.07825094 -0.1348775 0.14885794 0.2590044 -0.039822534 0.05766209 0.108260095 -0.009536329 -0.10253747 -0.2539931 0.07166451 0.011700053 -0.29270807 -0.017758 -0.03354057 -0.17498797 0.020450812 -0.16196135 0.107963845 -0.08217266 0.10257851 0.056758318 -0.10857238 0.0065764664 0.097981475 -0.14461054 0.02211915 0.010612812 0.0005195311 0.005961638 0.090787366 0.21998423 0.10073994 0.12490139 -0.022579944 -0.10862678 0.20160268 -0.017878255 0.20494963 -0.0871849 0.057096243 0.004298731 -0.040430143 -0.048431657 0.006036793 0.17385721 -0.14728259 -0.03420726 0.014329808 -0.096614696 0.15234412 -0.08921768 0.06915025 -0.08556056 0.056722585 0.2145055 0.015799712 -0.04004702 0.0745462 0.12990814 0.046141177 -0.08137119 -0.00039050548 -0.17881942 0.12812121 -0.10820524 -0.01687556 -0.038792938 0.0011435961 0.00031001683 0.11087523 -0.00187733 -0.06906675 -0.038435183 0.061682373 -0.026585504 -0.15727416 0.27501866 -0.07264495 0.030565942 -0.013269572 -0.03034653 -0.093138985 0.03502496 0.036111467 0.10198574 0.09102653 0.0721666 -0.12438396
20 0.30861992 -0.49372312 -0.20570704 -0.21093266 0.3084425 0.07642471 -0.4736547 0.14121051 0.3897496 0.24047756 -0.050022334 -0.2610159 -0.09207201 0.16860703 -0.092687204 0.019241575 -0.04080982 0.250305 -0.045619585 0.42426288 0.14135629 0.066113055 -0.11601767 0.15820199 -0.8513686 0.31819144 0.05625728 0.30722517 0.08792706 0.24737763 0.2528455 -0.14785838 -0.28025356 0.14692883 -0.55392253 0.28976718 -0.31681103 0.28592038 -0.25242776 0.02612575 0.16817836 0.22512193 0.22228138 0.17909545 -0.16052827 0.6056274 0.17028561 -0.06856128 -0.49512514 0.7314739 -0.70936316 -0.74738044 -0.13997671 -0.09180848 -0.468336 0.17432658 -0.016615752 0.04144141 -0.32164854 -0.22784027 -0.023841012 0.16294065 0.41605893 0.5350697 0.4000451 0.24018472 -0.3333635 -0.04956773 0.10479459 0.29930097 0.26229972 0.6637434 -0.027809277 0.14806327 -0.3206082 0.3066199 0.15407576 0.39049506 0.37254217 0.40559372 -0.21012484 -0.22386067 0.5574149 0.23753072 0.029917598 -0.25696456 0.2690812 0.37274694 -0.08896025 0.28906357 -0.117652096 0.0110639 -0.06612427 0.17405176 0.17096147 0.18100521 -0.9215503 0.61157155 0.24283384 -0.08605178 -0.16227585 -0.3153541 0.026454343 0.31836936 -0.037873838 -0.36277696 0.03266651 -0.054536045 -0.05250871 0.19520046 0.51242125 0.34538952 0.10932721 0.12993915 0.22853373 -0.37760094 0.28549987 -0.56411296 0.2378901 0.20592643 -0.43716577 -0.35827956 -0.3523967 0.022702947 0.5569863 -0.04247506 -0.57267666 -0.1442313
19 0.3371045 -0.095957875 -0.06780118 -0.3625429 0.13933937 0.235301 -0.1263883 0.03868675 0.14985763 0.14114222 0.04491605 -0.14382885 0.25903097 0.17027822 0.11261915 -0.08907892 0.080712885 0.10725908 -0.015187357 0.23000371 -0.15103512 -0.18017577 -0.044788342 0.2124597 -0.17197812 0.12986006 0.015906451 0.190951 -0.005110553 0.13139804 0.13858227 0.04664615 -0.24293208 0.022143722 -0.2037735 -0.017175838 -0.1756047 0.3509363 -0.102737956 -0.06485621 -0.15869497 0.15782578 0.38742733 0.027573239 0.07209914 0.25893575 0.035181478 -0.100221574 -0.41043034 0.21804579 -0.13351727 -0.5456545 -0.049945507 -0.051715937 -0.2832252 0.047607224 -0.25028363 0.09663338 -0.17813402 0.11148242 0.06268615 -0.073408104 0.09084125 0.21120997 -0.1019481 0.053968545 -0.09337591 0.00086271303 0.038521376 0.18755151 0.32413477 0.22736375 0.19484515 -0.009974944 -0.18974355 0.28349146 0.017301368 0.29642397 -0.012076601 0.11382091 -0.032512546 -0.08222495 0.09796238 0.043434147 0.24715587 -0.24736184 0.024178477 0.10010003 -0.1160236 0.2444406 -0.13261585 0.09658555 -0.09923624 0.095533594 0.291841 0.051682226 -0.25329426 0.23004109 0.24585001 0.07106816 -0.11144691 -0.07829647 -0.17635262 0.22917321 -0.10618644 -0.10313195 -0.052663904 -0.002221735 -0.014697787 0.16614121 0.047120005 0.015571944 -0.039646942 0.089578666 0.07754458 -0.2997212 0.3852236 -0.1805064 0.066319965 0.024273757 -0.14194754 -0.21708652 -0.037508916 0.06771193 0.28260413 0.05354018 -0.029161252 -0.18977222
29 0.068618156 -0.07958442 -0.046706684 -0.08578147 0.06182054 0.04544027 -0.10535297 0.018806985 0.08338561 0.0417009 -0.0013752964 -0.05418405 0.02346823 0.0568307 -0.009561548 -0.011680808 -0.016131857 0.05752692 0.0031717878 0.08118545 0.010071671 -0.0076974565 -0.026353456 0.034147937 -0.15179515 0.06485678 0.024328442 0.059450854 0.015621975 0.07980637 0.04275463 -0.015148817 -0.07368281 0.040561795 -0.10236601 0.053413074 -0.03909647 0.061238606 -0.059899427 0.007117211 0.009717452 0.02508483 0.06684487 0.047659315 0.00052018237 0.113131806 0.027284216 -0.012729467 -0.11281168 0.12880217 -0.12524304 -0.1735679 -0.020449681 -0.015997358 -0.08515369 0.033544797 -0.028345753 0.004959651 -0.071440615 -0.024895662 -0.011156491 0.030347576 0.06924655 0.09599388 0.051485773 0.044351008 -0.0807877 -0.008811748 0.018240605 0.07114179 0.073265634 0.1301132 0.028586997 0.018758375 -0.065418415 0.06676374 0.02885353 0.08092733 0.06811346 0.0608885 -0.034371935 -0.039757945 0.10907682 0.04212676 0.04456496 -0.075138725 0.046661846 0.06732237 -0.015542889 0.06278861 -0.024144853 0.012149793 -0.010916076 0.034889396 0.04965018 0.034339778 -0.17766564 0.12287342 0.06953103 0.0037556426 -0.036002122 -0.066243604 0.007827404 0.0739047 0.0029360629 -0.07332501 -0.010555188 0.00032419804 -0.011583114 0.040944196 0.06684241 0.06929401 0.015104029 0.023775376 0.052250087 -0.098801844 0.08352525 -0.104822874 0.038115375 0.030130435 -0.08777381 -0.090745345 -0.06583425 0.010343556 0.1258178 -0.015986739 -0.0946065 -0.041552853
