5 128
3 -0.0005866675 0.003278314 0.0013573237 -0.0010522893 0.0013660218 0.0005230224 -0.0021179074 0.0029956335 -0.0014979262 -0.0016589079 0.0010062642 0.0019760118 4.506243e-05 0.00034731696 -0.0004936238 0.00021337724 0.0013010241 -0.0025835761 0.002258749 0.001968519 -0.0036640614 0.0008243526 0.0021342505 -0.0038102295 0.002723024 0.0025191111 -0.002788407 0.00024439857 -0.003553338 -0.0034387805 -0.0034799208 -0.0018745844 -0.0006990474 0.0016067501 -0.0006322722 0.00018903884 0.0016044257 0.0023386066 -0.0028619065 0.0031279686 0.0029289841 -0.0007303859 0.00031894798 0.003436022 -0.0030205639 0.0024435713 -0.0005056256 -0.00022000713 0.003682875 -0.003448601 -0.0011227882 0.00071874965 -0.0020211388 0.003096228 -0.0006775812 -0.0013221053 -0.0013344667 -0.0019412612 -0.0015439213 0.0005436294 0.0017891184 -0.003466582 -0.003698995 -0.0026699076 -0.003200859 -0.0019697566 -0.0033681355 0.0026232593 -0.00346627 -0.0028192499 -0.0023721477 -0.0025670594 0.0023760907 -0.003415407 0.0036626225 0.002835616 -0.003530079 0.002326852 0.0015130624 -0.0026547045 -0.0031430929 -0.0022391086 0.0023727235 -0.0021938165 0.0030393067 0.0002430348 -0.0032592406 -1.5650478e-05 0.0008671007 0.0037197226 -0.0014210438 0.00034352383 0.00079403055 0.0034554864 0.0023396409 0.0013655622 -0.0036617336 -0.0036292057 -0.0004408632 0.0011607459 0.0011104033 -0.0028171001 0.0036630468 -0.00029991803 -0.0005059606 0.0028653333 -0.0024807078 0.0017672952 -0.003804787 0.0003358863 0.002443625 -0.003052943 0.0037488895 0.0027402567 -0.0006819155 0.001463888 0.00028412693 -0.0010144974 -0.0035887728 0.00043227422 -0.002660895 -0.0012122578 -0.0035469946 0.0021410494 0.0015242973 0.0035770538 0.0033545345 -0.0028624304
4 0.0029661832 -0.003484795 -0.0025643061 -0.003684985 0.0034610434 2.2014083e-05 0.0028187563 -0.0031796496 -0.00019353267 -0.000892743 -0.0025867913 0.003249623 0.0030128362 0.00063194765 -0.003421924 0.00061581185 -0.0034240957 -0.0019516046 -0.00072433695 -0.002142994 0.0007149703 0.0018381426 -0.0029856798 -0.003350412 -0.0038044546 -0.0013970367 -0.0014142303 0.0024029 -0.00058726367 -5.40638e-05 -0.0031977778 -0.0029064412 0.0019300008 -0.0028882644 0.00045277443 -0.00071595155 -0.0028747378 -0.0033291804 0.0034052897 -0.0016100382 -0.0033318251 0.003097795 0.0034707515 0.00033002894 0.0038395077 -0.0023524165 0.0035958039 -0.0016904939 -0.002820981 0.00361629 -0.0006173616 -0.0028465858 0.0033597043 0.002223007 -0.0014441673 -6.0819846e-05 0.00031959222 0.00012461736 -0.00011063904 -0.0036665744 0.0038902638 0.003295908 0.001898774 0.0007934916 -0.0009425956 0.0017893456 -0.001466454 -0.0025947199 0.0027590818 0.0032317084 0.0037197613 0.0033452567 -0.0020277782 0.003036187 -0.0009735511 -0.0032016519 -0.0018963558 -0.0029048338 0.0030881637 -0.00024263754 0.0028272313 -0.00084675447 0.0038479557 -0.0025673294 -0.0030948871 -0.0026070396 -6.463036e-05 0.0016023018 -0.0018797156 0.0019363574 0.00288683 -0.00032655557 0.0005548779 -0.00036771258 0.00013178428 0.0014686044 -0.001467126 -0.0004174733 0.000100367295 0.00046674674 0.000675348 -0.0011128971 -0.0020617042 0.0015204241 0.0029661625 -0.001166863 -0.003871367 -0.0035586727 -0.0034024303 -0.0019596966 0.0018760825 -0.0027571123 0.0001437322 -0.0033727284 0.0008617794 0.0037528148 0.002579613 -0.0023435727 -0.0030835527 0.00054958015 0.0016733366 -0.00059018447 0.0029421956 0.0006377366 0.0015406484 -9.8170036e-05 0.0020128465 0.002951081
2 0.0034768293 0.0009169651 0.0007153368 0.0032759374 -0.0027943843 -0.003795509 0.0021056267 -0.0032148648 -0.0028890588 0.0018317279 0.00047665567 0.0025522793 -0.003003919 -0.003284286 -0.001295339 -0.0016572019 -0.0003387392 0.0027643503 0.003659356 -0.0029679895 -0.0033360731 -0.00047411057 -0.0001293494 -0.0037467787 0.0025575121 -0.0019489799 0.0023081803 0.0036768937 -0.0018978158 -0.0017474339 0.003677857 -9.845506e-05 0.0036838702 0.002390869 -0.0022207452 -0.0002989081 0.0035031985 0.0022190714 0.0038205371 0.0023864869 -0.0031319205 -0.0002629772 0.0037527776 -0.0008773611 -0.0024602283 0.0008994029 0.0023609644 0.0001929224 0.0020775152 0.0019630813 0.0025502911 0.0005242132 0.001934268 0.003264241 0.0017129161 0.00013705714 -0.0019211045 0.0035249472 0.0036985937 0.0031652506 0.00012474041 -0.002296544 0.003190526 -0.0033363963 -0.0026476977 -0.0028876562 0.0028482014 0.00041485022 -0.0010528968 0.0035348465 -0.00093503983 0.0021095704 -0.0014705174 -0.0008724487 0.0010310544 -0.003277712 -0.0016751507 -0.0034776535 -0.0004799026 0.00011604049 0.0038712008 0.0036639199 -0.0016620316 -0.0019870668 -0.0026232633 0.003403051 -0.0009737924 -0.0001895575 -0.00071757525 0.0016257231 0.0036260872 0.002020954 -0.003326854 -0.0025647653 -0.0003792614 -0.0035757371 0.002358409 -0.00051080546 -0.0030976732 -0.001158539 -0.001318643 -0.0033349518 0.0022074229 0.003736936 0.001523883 -0.0038161809 0.0028379948 0.00016011622 0.0015028066 0.0016933121 0.0021467956 -0.0025260963 -0.0015405061 -0.0028261754 0.0039023657 0.00047886846 -0.0035763883 0.0020509162 -0.002496953 -0.0023340064 0.0033829873 0.0006810861 0.0016951027 -0.0036456387 0.0019307305 0.0038108516 -0.0017169359 -0.0012490534
0 0.003719113 -0.0018362787 0.00026313242 -0.0024462182 0.0012823135 0.0038991587 0.003360291 0.0011909147 0.003753996 0.0012962152 -0.003854427 -0.00031851954 -0.003700282 0.003874314 -0.0009810469 0.0021747632 -0.0006596046 -0.0030455408 0.0011000705 0.00021321273 0.0035051964 -0.0022752306 -0.0007071948 0.0034521532 -0.0021883422 0.0028525237 0.002584532 0.00051672716 0.0035532396 -0.0034033603 -0.00025082252 -0.0012862645 0.0028452717 -0.0034389796 0.0028127334 -0.0013316339 -0.0018203459 0.0032018186 -0.00021329544 -0.00068842573 0.0010917728 -0.0017723129 0.0025688773 0.0016937425 -0.00055702863 -0.0021803733 -0.0018979702 0.0017955209 0.0007743256 0.0021137875 0.001057833 0.0033352755 0.0019613693 -0.0024715557 -0.0025655106 -0.0020489749 0.0015965524 -0.00029632432 -0.00056274165 0.0027747462 -0.00278264 0.0020707224 0.00040490474 -0.0016560077 0.000947296 0.0020758312 0.002027863 -0.002555991 0.0025434117 0.0025277953 0.0015866576 0.0014976888 -0.0008123224 0.00043838972 -0.0031570466 0.0038626716 -0.0017738148 6.955655e-05 0.0015012937 0.0009235711 0.0028717811 0.0020151485 0.0025528357 0.0011414535 -0.00025999246 0.001222541 -0.0029898281 -0.0019105889 -0.0036523324 0.0038445154 -0.0036408042 -0.0016632982 -0.00046160334 -0.0026688208 0.0013482223 -0.00026845856 0.0022974694 0.0031266923 0.0028216343 0.0003020139 -0.003093299 0.0033377593 -0.0038675612 0.00046727277 0.00201348 -0.0017011907 -0.00088238297 -0.0027186885 0.00316788 -0.0027666064 -0.0014937916 -0.00225242 0.0024922185 -0.0006240061 0.0021289804 -0.0005276999 -0.0001273988 -0.0031322504 -0.0025345506 -0.0035370719 0.00049753574 -0.0009989451 5.2629934e-05 0.0018490208 -0.00026512283 0.00015207614 0.0032771276 0.0030273213
1 0.003665152 -0.0003754861 0.00016555729 -0.0037724169 -0.0033042552 0.000680129 0.002473583 0.002626945 -0.003466316 -0.0026169785 -0.0026056424 -0.0012743685 0.0014408291 -0.0013606127 -0.003554176 0.0015063948 -0.0028475942 -0.0022586375 0.002754981 -0.0033222553 0.0005386228 -0.002711587 0.0024970914 0.0036766194 -0.0020314674 2.9640561e-05 0.0030244454 -0.00090393994 0.00020471678 0.0011894591 -0.003620141 0.0016733223 0.0027462125 0.0036254379 0.0004377846 -0.0029664668 -0.00089302246 -0.0029921029 -0.0025025948 0.003558236 -0.0026112855 -0.0017827369 -0.0022627413 0.00024809377 -0.0012740016 0.0024374297 -0.0033764536 -0.00054267334 0.0027854396 -0.00095800095 -0.0027255625 -0.0033318368 -0.00014471493 0.0032861973 -0.0011007113 0.0017463148 0.0022299357 0.0010804402 -0.003422473 -0.002757605 -0.002682356 -0.0012323954 0.0011335656 -0.0014542723 -0.0016657338 -0.0007553082 0.0017689489 -0.0016577704 -0.00090260705 -0.000120874385 0.00043542113 0.001559543 -0.0017830326 -0.0020793166 -0.00057760713 -0.0038131669 -0.00069434737 -0.001382173 -0.0029251066 -0.00047827346 0.0030904796 -0.000813377 -0.00078787137 0.0027688758 0.0013572688 -0.0037603448 -0.002234525 -0.0015518888 -0.0034057659 0.003828631 -0.0008140068 0.0005184495 -0.00029218048 -0.0036475933 -0.0025485463 -0.0010608018 0.00096010615 0.0007813088 -0.0016728062 0.0028539663 -0.0023555665 0.00088954007 -0.0033149095 -0.0012980839 -8.5002794e-05 -0.0013930148 0.0013168572 -0.0015300167 -0.00022137954 -0.00026464718 0.002214004 -0.0030355605 0.002725885 1.1914056e-05 0.00011888522 0.00066100585 0.0030156355 -0.0026166306 0.0005130489 -0.0022581494 -0.0016114544 -0.000960886 -0.00067331 0.0037553282 -0.003391512 -0.0021363944 -0.0030496027 0.00034285657
